{"learner":{"attributes":{"scikit_learn":"{\"_estimator_type\": \"classifier\"}"},"feature_names":[],"feature_types":[],"gradient_booster":{"model":{"gbtree_model_param":{"num_parallel_tree":"1","num_trees":"100"},"iteration_indptr":[0,1,2,3,4,5,6,7,8,9,10,11,12,13,14,15,16,17,18,19,20,21,22,23,24,25,26,27,28,29,30,31,32,33,34,35,36,37,38,39,40,41,42,43,44,45,46,47,48,49,50,51,52,53,54,55,56,57,58,59,60,61,62,63,64,65,66,67,68,69,70,71,72,73,74,75,76,77,78,79,80,81,82,83,84,85,86,87,88,89,90,91,92,93,94,95,96,97,98,99,100],"tree_info":[0,0,0,0,0,0,0,0,0,0,0,0,0,0,0,0,0,0,0,0,0,0,0,0,0,0,0,0,0,0,0,0,0,0,0,0,0,0,0,0,0,0,0,0,0,0,0,0,0,0,0,0,0,0,0,0,0,0,0,0,0,0,0,0,0,0,0,0,0,0,0,0,0,0,0,0,0,0,0,0,0,0,0,0,0,0,0,0,0,0,0,0,0,0,0,0,0,0,0,0],"trees":[{"base_weights":[-2.9248312E-1,-5.113942E-1,3.1663718E0,-6.6844165E-1,7.709133E-1,1.8970641E0,4.2855134E0,8.82648E-1,-7.73234E-1,6.631501E-1,3.6394713E0,2.4448755E0,5.337556E-1,4.513077E0,1.1064558E0,4.1675934E-1,2.5855725E0,-8.0377525E-1,2.5029943E0,5.511504E-1,3.0143926E0,3.8191037E0,-3.1573555E-1,2.0459206E0,4.2913685E0,-4.1166112E-1,1.0594712E0,3.9315577E0,4.7885222E0,2.3287225E0,-7.254093E-1,3.021604E-1,4.3053174E0,-1.2346745E-2,2.8187084E0,-8.807806E-1,-1.9020896E-1,3.940409E0,7.316908E-1,3.0123028E-1,1.1088872E0,8.865232E-2,3.414301E0,3.9239185E0,-1.04031935E-1,2.6024657E-1,-1.1265297E-1,1.4411615E0,3.8926601E0,4.462251E0,2.221861E0,-5.473351E-1,1.6450698E0,4.993996E-2,1.6461821E0,4.0819488E0,1.5740353E0,4.7967277E0,1.2387171E0,3.1256282E0,-4.582019E-1,-1.0487349E0,3.2902178E-1,1.0937542E-2,1.5617467E-1,4.3821326E-1,-6.604292E-2,-6.2056746E-2,1.7643905E-1,2.397491E-1,4.0360236E-1,-8.904521E-2,1.6726373E-1,-3.8723644E-2,8.949315E-2,1.6603307E-1,4.4933468E-1,3.3327255E-2,3.713564E-1,1.5373352E-2,1.3129045E-1,1.2570764E-1,-1.2396281E-1,-6.153923E-2,4.1374618E-1,2.593865E-1,4.4397694E-1,2.5711477E-1,4.2241144E-1,2.2236476E-2,2.358835E-1,2.87651E-1,4.5844555E-1,2.2218709E-1,4.582489E-1,-2.0146133E-2,3.007285E-1,-6.1734553E-2,2.771951E-1,-2.288756E-2,2.972581E-1,1.1465528E-1,-7.209736E-2,2.1065818E-1,2.5873763E-2,3.606149E-1,4.551168E-1,2.1889837E-1,-1.10052705E-1,4.801553E-1,8.9024685E-2,3.076638E-1,-8.2197204E-2,1.7311268E-1,4.3584022E-1,1.8989441E-1,-1.1736393E-1,-1.1359165E-1,1.6979396E-1],"categories":[],"categories_nodes":[],"categories_segments":[],"categories_sizes":[],"default_left":[0,0,0,0,0,0,0,0,0,0,0,0,0,0,0,0,0,0,0,0,0,0,0,0,0,0,0,0,0,0,0,0,0,0,0,0,0,0,0,0,0,0,0,0,0,0,0,0,0,0,0,0,0,0,0,0,0,0,0,0,0,0,0,0,0,0,0,0,0,0,0,0,0,0,0,0,0,0,0,0,0,0,0,0,0,0,0,0,0,0,0,0,0,0,0,0,0,0,0,0,0,0,0,0,0,0,0,0,0,0,0,0,0,0,0,0,0,0,0],"id":0,"left_children":[1,3,5,7,9,11,13,15,17,19,21,23,25,27,29,31,33,35,37,39,41,43,45,47,49,51,53,55,57,59,61,63,65,67,69,71,73,75,77,79,81,83,85,87,-1,-1,-1,89,91,93,95,97,99,101,103,105,107,109,111,113,115,117,-1,-1,-1,-1,-1,-1,-1,-1,-1,-1,-1,-1,-1,-1,-1,-1,-1,-1,-1,-1,-1,-1,-1,-1,-1,-1,-1,-1,-1,-1,-1,-1,-1,-1,-1,-1,-1,-1,-1,-1,-1,-1,-1,-1,-1,-1,-1,-1,-1,-1,-1,-1,-1,-1,-1,-1,-1],"loss_changes":[5.219558E4,1.3056127E4,5.8205586E3,9.388598E3,2.1843408E3,1.435896E3,1.5719258E3,2.899175E3,5.4154727E3,1.7940713E3,1.8302222E2,1.00229297E3,2.7523572E2,3.0694922E2,3.3067914E2,1.2783192E3,4.7553076E2,2.5324688E3,1.2699844E3,9.07131E2,3.6220703E2,1.2880078E2,3.1421673E1,1.2570249E3,7.600049E1,5.6234783E1,2.105376E2,2.2733301E2,3.4121094E1,1.9769125E2,8.078802E1,6.7741833E2,3.4221313E1,7.20355E1,3.5972754E2,1.1776289E3,1.2785741E3,3.4018506E2,2.6628583E2,6.708524E2,7.0253467E2,1.1167531E2,2.1778613E2,8.656299E1,0E0,0E0,0E0,9.53792E2,1.824541E2,5.0003418E1,3.9665916E1,4.511562E1,3.1828953E1,1.1219269E2,1.4309192E2,1.2181348E2,7.011208E1,2.1589844E1,1.9649187E1,1.1080963E2,3.683662E1,1.5310978E1,0E0,0E0,0E0,0E0,0E0,0E0,0E0,0E0,0E0,0E0,0E0,0E0,0E0,0E0,0E0,0E0,0E0,0E0,0E0,0E0,0E0,0E0,0E0,0E0,0E0,0E0,0E0,0E0,0E0,0E0,0E0,0E0,0E0,0E0,0E0,0E0,0E0,0E0,0E0,0E0,0E0,0E0,0E0,0E0,0E0,0E0,0E0,0E0,0E0,0E0,0E0,0E0,0E0,0E0,0E0,0E0,0E0],"parents":[2147483647,0,0,1,1,2,2,3,3,4,4,5,5,6,6,7,7,8,8,9,9,10,10,11,11,12,12,13,13,14,14,15,15,16,16,17,17,18,18,19,19,20,20,21,21,22,22,23,23,24,24,25,25,26,26,27,27,28,28,29,29,30,30,31,31,32,32,33,33,34,34,35,35,36,36,37,37,38,38,39,39,40,40,41,41,42,42,43,43,47,47,48,48,49,49,50,50,51,51,52,52,53,53,54,54,55,55,56,56,57,57,58,58,59,59,60,60,61,61],"right_children":[2,4,6,8,10,12,14,16,18,20,22,24,26,28,30,32,34,36,38,40,42,44,46,48,50,52,54,56,58,60,62,64,66,68,70,72,74,76,78,80,82,84,86,88,-1,-1,-1,90,92,94,96,98,100,102,104,106,108,110,112,114,116,118,-1,-1,-1,-1,-1,-1,-1,-1,-1,-1,-1,-1,-1,-1,-1,-1,-1,-1,-1,-1,-1,-1,-1,-1,-1,-1,-1,-1,-1,-1,-1,-1,-1,-1,-1,-1,-1,-1,-1,-1,-1,-1,-1,-1,-1,-1,-1,-1,-1,-1,-1,-1,-1,-1,-1,-1,-1],"split_conditions":[2E0,6.996E0,3E0,1E0,5E0,7.5E0,2E0,1.94E2,6E0,3E0,1E0,4E0,2.997799E6,4E0,3.41E2,2E0,7E0,2E0,1.4E1,1E0,2.3597462E-1,3E0,3E0,1.075113E0,8.2998E0,2E0,1.3E1,2.70512E1,4.52E2,3.35336E1,2E0,2E0,6.4E1,2E0,1.1207792E0,3E0,1.77E2,8E0,3E0,2E0,4E0,3E0,1.1E1,7E0,-1.04031935E-1,2.6024657E-1,-1.1265297E-1,2.02E2,2E0,8.217E0,1.739034E-1,7E0,1E0,2E0,5.29E2,2E0,2E0,3.095E1,1.0648854E0,8E0,1.3201223E-1,9E0,3.2902178E-1,1.0937542E-2,1.5617467E-1,4.3821326E-1,-6.604292E-2,-6.2056746E-2,1.7643905E-1,2.397491E-1,4.0360236E-1,-8.904521E-2,1.6726373E-1,-3.8723644E-2,8.949315E-2,1.6603307E-1,4.4933468E-1,3.3327255E-2,3.713564E-1,1.5373352E-2,1.3129045E-1,1.2570764E-1,-1.2396281E-1,-6.153923E-2,4.1374618E-1,2.593865E-1,4.4397694E-1,2.5711477E-1,4.2241144E-1,2.2236476E-2,2.358835E-1,2.87651E-1,4.5844555E-1,2.2218709E-1,4.582489E-1,-2.0146133E-2,3.007285E-1,-6.1734553E-2,2.771951E-1,-2.288756E-2,2.972581E-1,1.1465528E-1,-7.209736E-2,2.1065818E-1,2.5873763E-2,3.606149E-1,4.551168E-1,2.1889837E-1,-1.10052705E-1,4.801553E-1,8.9024685E-2,3.076638E-1,-8.2197204E-2,1.7311268E-1,4.3584022E-1,1.8989441E-1,-1.1736393E-1,-1.1359165E-1,1.6979396E-1],"split_indices":[150,181,150,7,5,157,134,24,5,67,134,5,0,150,25,107,30,161,6,193,167,163,6,147,130,77,30,125,181,128,121,20,138,5,60,110,178,5,79,63,100,63,161,5,0,0,0,24,119,1,117,153,30,6,8,119,7,102,78,150,111,123,0,0,0,0,0,0,0,0,0,0,0,0,0,0,0,0,0,0,0,0,0,0,0,0,0,0,0,0,0,0,0,0,0,0,0,0,0,0,0,0,0,0,0,0,0,0,0,0,0,0,0,0,0,0,0,0,0],"split_type":[0,0,0,0,0,0,0,0,0,0,0,0,0,0,0,0,0,0,0,0,0,0,0,0,0,0,0,0,0,0,0,0,0,0,0,0,0,0,0,0,0,0,0,0,0,0,0,0,0,0,0,0,0,0,0,0,0,0,0,0,0,0,0,0,0,0,0,0,0,0,0,0,0,0,0,0,0,0,0,0,0,0,0,0,0,0,0,0,0,0,0,0,0,0,0,0,0,0,0,0,0,0,0,0,0,0,0,0,0,0,0,0,0,0,0,0,0,0,0],"sum_hessian":[6.893089E4,6.482873E4,4.1021606E3,5.7755723E4,7.0730107E3,1.9233878E3,2.1787727E3,3.654597E3,5.4101125E4,6.818106E3,2.5490489E2,1.371494E3,5.518939E2,2.0328386E3,1.4593425E2,2.8705203E3,7.840766E2,5.3602195E4,4.9892874E2,6.509276E3,3.0883017E2,2.4386382E2,1.1041079E1,1.1295503E3,2.4194363E2,1.9729927E2,3.5459464E2,6.583043E2,1.3745343E3,8.736853E1,5.856572E1,2.7893923E3,8.112792E1,6.464632E1,7.194303E2,4.7624652E4,5.977544E3,2.7474683E2,2.241819E2,4.496119E3,2.0131566E3,3.728364E1,2.7154654E2,2.3890334E2,4.9604845E0,1.9201876E0,9.120891E0,8.522432E2,2.773071E2,2.2242172E2,1.9521906E1,1.8577814E2,1.1521125E1,1.3073277E2,2.2386186E2,6.181404E2,4.016392E1,1.3710139E3,3.5203438E0,6.784663E1,1.9521906E1,5.488536E1,3.6803596E0,2.4200764E3,3.6931607E2,8.000781E1,1.1201094E0,4.8644753E1,1.6001562E1,5.3669244E2,1.8273785E2,4.7445594E4,1.790575E2,5.059534E3,9.1800964E2,5.4405315E1,2.2034152E2,1.9873941E2,2.5442486E1,3.9250234E3,5.7109576E2,1.894105E3,1.1905163E2,3.2483173E1,4.800469E0,1.5281493E2,1.187316E2,4.512441E1,1.9377893E2,3.665958E2,4.8564743E2,1.1441118E2,1.628959E2,1.2321203E1,2.1010052E2,4.9604845E0,1.4561422E1,1.8273785E2,3.040297E0,5.1205E0,6.400625E0,5.376525E1,7.6967514E1,1.6769638E2,5.6165485E1,3.112304E2,3.0690997E2,3.2803204E1,7.3607187E0,1.3690938E3,1.9201876E0,1.6001563E0,1.9201875E0,3.296322E1,3.4883408E1,4.1604066E0,1.53615E1,5.376525E1,1.1201094E0],"tree_param":{"num_deleted":"0","num_feature":"199","num_nodes":"119","size_leaf_vector":"1"}},{"base_weights":[-2.7233607E-1,-4.7914222E-1,2.3748803E0,-6.2908375E-1,6.5049297E-1,1.5104641E0,3.0424526E0,7.3793215E-1,-7.2896194E-1,4.1398033E-1,1.6151615E0,2.489947E0,1.0364382E0,3.1012757E0,-1.21446006E-1,3.0189413E-1,1.9718503E0,-7.722008E-1,1.2784783E0,2.5857052E-1,2.29042E0,-1.7035836E-1,1.8372248E0,2.9350529E0,1.6305295E0,4.2657757E-1,2.5687397E0,3.1694486E0,1.659131E0,1.6181217E0,4.741287E-2,1.2222029E0,2.5443347E0,-8.1490374E-1,2.395973E-1,4.9939442E-1,2.6313555E0,3.2808533E-1,-1.0082288E0,2.540444E0,4.0152216E-1,-3.4804785E-1,3.345552E0,9.1672003E-1,2.2331939E0,2.050402E0,3.1077478E0,1.043233E0,3.3484874E0,6.312486E-2,1.3454818E0,2.923395E0,1.1360278E0,2.8510766E0,3.314771E0,3.8765237E-1,2.8349607E0,1.4997548E-2,2.1811798E-1,2.3080366E-2,-9.809335E-2,8.816386E-2,3.0889875E-1,4.4935796E-2,2.671205E-1,-6.774046E-2,-1.04474835E-1,-1.1865486E-2,1.0720348E-1,2.1112788E-1,2.1070233E-2,3.2954141E-1,8.111905E-2,2.7346665E-2,2.5812444E-1,2.5564677E-1,-1.0587286E-1,2.772398E-1,1.2756497E-1,2.0720708E-1,-6.571806E-2,6.8304E-2,-6.928926E-2,3.7923986E-1,1.06887154E-1,1.9589487E-2,1.4580847E-1,1.7454313E-1,2.7740228E-1,2.4249084E-1,-1.6500974E-3,1.12153724E-1,3.1684026E-1,-4.3299478E-2,1.4936924E-1,3.4432158E-1,1.2962385E-1,-4.276154E-3,3.5333273E-1,2.9486034E-2,2.5671402E-1,2.2988324E-1,3.338989E-1,1.9051744E-1,-7.9319835E-2,2.9430017E-1,8.464321E-2,-8.274644E-2,3.3185744E-1,-1.6412973E-2,2.880332E-1,-9.160977E-2,3.0061793E-1],"categories":[],"categories_nodes":[],"categories_segments":[],"categories_sizes":[],"default_left":[0,0,0,0,0,0,0,0,0,0,0,0,0,0,0,0,0,0,0,0,0,0,0,0,0,0,0,0,0,0,0,0,0,0,0,0,0,0,0,0,0,0,0,0,0,0,0,0,0,0,0,0,0,0,0,0,0,0,0,0,0,0,0,0,0,0,0,0,0,0,0,0,0,0,0,0,0,0,0,0,0,0,0,0,0,0,0,0,0,0,0,0,0,0,0,0,0,0,0,0,0,0,0,0,0,0,0,0,0,0,0,0,0],"id":1,"left_children":[1,3,5,7,9,11,13,15,17,19,21,23,25,27,-1,29,31,33,35,37,39,41,43,45,47,49,51,53,55,57,59,61,63,65,67,69,71,73,75,77,79,81,83,85,87,89,91,93,95,97,99,101,103,105,107,109,111,-1,-1,-1,-1,-1,-1,-1,-1,-1,-1,-1,-1,-1,-1,-1,-1,-1,-1,-1,-1,-1,-1,-1,-1,-1,-1,-1,-1,-1,-1,-1,-1,-1,-1,-1,-1,-1,-1,-1,-1,-1,-1,-1,-1,-1,-1,-1,-1,-1,-1,-1,-1,-1,-1,-1,-1],"loss_changes":[3.704262E4,1.0630413E4,2.8246953E3,7.5652656E3,1.6773254E3,9.9031104E2,6.9625586E2,2.0293711E3,4.482717E3,1.722226E3,5.7435254E2,2.6172217E2,1.3471609E3,2.6295117E2,0E0,9.341024E2,4.195962E2,2.184082E3,1.1465707E3,4.8088715E2,2.1232422E2,1.0178287E2,4.6731396E2,6.3557617E1,2.3861816E2,3.4498895E2,2.0528711E2,1.1101758E2,1.8613705E2,3.731781E2,4.4117398E2,2.696441E2,1.4698975E2,1.5320039E3,6.1077814E2,3.2172028E2,4.7807983E2,6.3602374E2,5.385312E1,1.1344653E2,9.685452E1,5.53065E1,3.92453E0,1.5151962E2,2.324956E2,6.018506E1,4.235034E1,1.2053084E2,7.333679E0,2.7258765E2,3.7504248E2,7.757861E1,1.248171E2,1.492041E2,3.0820312E1,8.4826996E1,4.44411E1,0E0,0E0,0E0,0E0,0E0,0E0,0E0,0E0,0E0,0E0,0E0,0E0,0E0,0E0,0E0,0E0,0E0,0E0,0E0,0E0,0E0,0E0,0E0,0E0,0E0,0E0,0E0,0E0,0E0,0E0,0E0,0E0,0E0,0E0,0E0,0E0,0E0,0E0,0E0,0E0,0E0,0E0,0E0,0E0,0E0,0E0,0E0,0E0,0E0,0E0,0E0,0E0,0E0,0E0,0E0,0E0],"parents":[2147483647,0,0,1,1,2,2,3,3,4,4,5,5,6,6,7,7,8,8,9,9,10,10,11,11,12,12,13,13,15,15,16,16,17,17,18,18,19,19,20,20,21,21,22,22,23,23,24,24,25,25,26,26,27,27,28,28,29,29,30,30,31,31,32,32,33,33,34,34,35,35,36,36,37,37,38,38,39,39,40,40,41,41,42,42,43,43,44,44,45,45,46,46,47,47,48,48,49,49,50,50,51,51,52,52,53,53,54,54,55,55,56,56],"right_children":[2,4,6,8,10,12,14,16,18,20,22,24,26,28,-1,30,32,34,36,38,40,42,44,46,48,50,52,54,56,58,60,62,64,66,68,70,72,74,76,78,80,82,84,86,88,90,92,94,96,98,100,102,104,106,108,110,112,-1,-1,-1,-1,-1,-1,-1,-1,-1,-1,-1,-1,-1,-1,-1,-1,-1,-1,-1,-1,-1,-1,-1,-1,-1,-1,-1,-1,-1,-1,-1,-1,-1,-1,-1,-1,-1,-1,-1,-1,-1,-1,-1,-1,-1,-1,-1,-1,-1,-1,-1,-1,-1,-1,-1,-1],"split_conditions":[2E0,6.996E0,3E0,1E0,1.5995E2,1E0,6.19E2,1E0,3E0,3E0,3E0,3E0,3E0,2E0,-1.21446006E-1,-4E0,1E0,1E0,1.1207792E0,8.2E1,1.5E1,5.34E2,2.65E2,2.335393E6,1.149845E0,2E0,6.8863E0,4E0,5E0,2.40291E6,1E0,2E0,3E0,1E0,1E0,3E0,2.8E1,9E0,1E0,1.26E2,4.17E2,1.4E1,6.123341E6,2.25E2,1E0,1.42597E1,1E0,2.40291E6,1.0042763E0,4E0,1.0347914E0,8E0,4E0,1E0,1.01E2,3E0,2.80953E1,1.4997548E-2,2.1811798E-1,2.3080366E-2,-9.809335E-2,8.816386E-2,3.0889875E-1,4.4935796E-2,2.671205E-1,-6.774046E-2,-1.04474835E-1,-1.1865486E-2,1.0720348E-1,2.1112788E-1,2.1070233E-2,3.2954141E-1,8.111905E-2,2.7346665E-2,2.5812444E-1,2.5564677E-1,-1.0587286E-1,2.772398E-1,1.2756497E-1,2.0720708E-1,-6.571806E-2,6.8304E-2,-6.928926E-2,3.7923986E-1,1.06887154E-1,1.9589487E-2,1.4580847E-1,1.7454313E-1,2.7740228E-1,2.4249084E-1,-1.6500974E-3,1.12153724E-1,3.1684026E-1,-4.3299478E-2,1.4936924E-1,3.4432158E-1,1.2962385E-1,-4.276154E-3,3.5333273E-1,2.9486034E-2,2.5671402E-1,2.2988324E-1,3.338989E-1,1.9051744E-1,-7.9319835E-2,2.9430017E-1,8.464321E-2,-8.274644E-2,3.3185744E-1,-1.6412973E-2,2.880332E-1,-9.160977E-2,3.0061793E-1],"split_indices":[150,181,150,6,180,6,157,183,5,5,161,110,5,134,0,21,193,159,60,6,175,33,181,0,120,119,156,150,150,0,54,60,30,71,193,6,29,4,105,29,26,31,0,10,193,104,30,0,97,154,49,5,137,112,24,119,157,0,0,0,0,0,0,0,0,0,0,0,0,0,0,0,0,0,0,0,0,0,0,0,0,0,0,0,0,0,0,0,0,0,0,0,0,0,0,0,0,0,0,0,0,0,0,0,0,0,0,0,0,0,0,0,0],"split_type":[0,0,0,0,0,0,0,0,0,0,0,0,0,0,0,0,0,0,0,0,0,0,0,0,0,0,0,0,0,0,0,0,0,0,0,0,0,0,0,0,0,0,0,0,0,0,0,0,0,0,0,0,0,0,0,0,0,0,0,0,0,0,0,0,0,0,0,0,0,0,0,0,0,0,0,0,0,0,0,0,0,0,0,0,0,0,0,0,0,0,0,0,0,0,0,0,0,0,0,0,0,0,0,0,0,0,0,0,0,0,0,0,0],"sum_hessian":[6.765955E4,6.2757605E4,4.9019385E3,5.5404023E4,7.353581E3,2.1374678E3,2.7644707E3,3.7719246E3,5.16321E4,5.9068086E3,1.4467725E3,6.956952E2,1.4417725E3,2.7270588E3,3.741178E1,2.7879666E3,9.8395795E2,5.054403E4,1.0880696E3,5.456066E3,4.5074252E2,1.6005647E2,1.2867161E3,4.567316E2,2.3896362E2,1.0322229E3,4.095495E2,2.6028208E3,1.24237946E2,4.5082935E2,2.3371372E3,4.2741223E2,5.565457E2,4.8497395E4,2.046635E3,6.913245E2,3.9674512E2,5.172945E3,2.831211E2,3.9774954E2,5.2993E1,1.5321423E2,6.8422384E0,3.8801556E2,8.9870044E2,7.669991E1,3.8003168E2,1.7928201E2,5.968161E1,7.4043036E2,2.9179257E2,3.274513E2,8.209821E1,8.221887E2,1.7806322E3,6.033001E1,6.3907936E1,1.2532274E2,3.2550662E2,1.9840807E3,3.5305667E2,3.6271335E2,6.469886E1,3.203879E1,5.2450696E2,3.0346977E4,1.815042E4,1.4314474E3,6.151877E2,1.0405124E2,5.8727325E2,2.900972E2,1.0664793E2,5.051611E3,1.2133442E2,3.2616782E0,2.798594E2,3.351022E2,6.2647327E1,2.0185194E1,3.2807804E1,3.81537E1,1.15060524E2,5.163111E0,1.6791272E0,1.6700752E2,2.2100804E2,4.7475552E2,4.2394495E2,6.478769E1,1.1912221E1,1.1839022E1,3.6819266E2,4.1925186E1,1.3735683E2,5.6400482E1,3.2811277E0,7.19465E2,2.0965382E1,1.5754546E2,1.342471E2,1.334426E2,1.9400868E2,5.870578E1,2.3392435E1,7.8569183E2,3.649685E1,1.4348689E0,1.7791973E3,5.016057E1,1.0169441E1,2.5998545E0,6.130808E1],"tree_param":{"num_deleted":"0","num_feature":"199","num_nodes":"113","size_leaf_vector":"1"}},{"base_weights":[-2.4837586E-1,-4.422477E-1,1.9418522E0,6.87227E-1,-5.3938115E-1,1.2627541E0,2.4405699E0,3.3762515E-1,1.5939679E0,1.2126487E-1,-7.281744E-1,2.0336752E0,8.556393E-1,2.4793866E0,-1.18191816E-1,2.3919572E-1,2.6975846E0,1.8667101E0,5.582547E-1,-1.283445E-1,8.292143E-1,-7.486794E-1,2.2274885E0,2.2752657E0,1.1614023E0,2.2502762E-1,1.405047E0,1.1582347E0,2.52165E0,-5.304475E-1,4.709452E-1,2.9553862E0,1.1861677E0,2.2276275E0,1.1385798E0,1.8617322E0,1.2790413E-1,-2.3963262E-1,1.042635E0,4.864317E-1,1.550559E0,-7.605324E-1,2.9282203E0,1.6378013E0,2.8832154E0,2.3070028E0,-1.15389265E-1,5.041865E-1,3.041662E-1,-2.7850673E-1,1.3069471E0,1.6161939E0,-1.5451945E-1,2.122429E0,-5.2869153E-1,2.5374913E0,1.3982168E-1,-6.8550125E-2,5.6430914E-2,4.648431E-4,1.09926514E-1,3.1092215E-1,-3.558449E-2,1.7024623E-1,-3.2349434E-2,1.9888474E-1,3.1677708E-1,2.5172365E-1,8.9753024E-2,1.194729E-1,2.7322945E-1,-3.9277175E-3,2.992206E-1,-3.0081315E-2,7.974851E-2,2.8634919E-2,1.7867875E-1,-8.597107E-4,8.6554155E-2,1.8295512E-1,4.837681E-2,-8.225378E-2,-2.1654375E-2,3.3352646E-1,4.886349E-2,7.146626E-2,2.4877417E-1,3.0318293E-1,-1.0560638E-1,1.2086494E-1,2.4009097E-1,-1.4984473E-2,2.3330079E-1,-6.73519E-2,2.6841626E-2,6.2055357E-2,2.47295E-1,1.906766E-1,5.9740007E-2,-3.1738807E-2,2.887267E-1,2.2441895E-1,-9.691524E-2,-8.874203E-2,2.227844E-1,2.0763719E-1,2.61247E-1,1.5923579E-1,-8.727375E-2],"categories":[],"categories_nodes":[],"categories_segments":[],"categories_sizes":[],"default_left":[0,0,0,0,0,0,0,0,0,0,0,0,0,0,0,0,0,0,0,0,0,0,0,0,0,0,0,0,0,0,0,0,0,0,0,0,0,0,0,0,0,0,0,0,0,0,0,0,0,0,0,0,0,0,0,0,0,0,0,0,0,0,0,0,0,0,0,0,0,0,0,0,0,0,0,0,0,0,0,0,0,0,0,0,0,0,0,0,0,0,0,0,0,0,0,0,0,0,0,0,0,0,0,0,0,0,0,0,0],"id":2,"left_children":[1,3,5,7,9,11,13,15,17,19,21,23,25,27,-1,29,31,33,35,37,39,41,43,45,47,49,51,53,55,57,59,61,63,65,67,69,71,73,75,77,79,81,83,85,87,89,-1,91,-1,93,95,97,99,101,103,105,107,-1,-1,-1,-1,-1,-1,-1,-1,-1,-1,-1,-1,-1,-1,-1,-1,-1,-1,-1,-1,-1,-1,-1,-1,-1,-1,-1,-1,-1,-1,-1,-1,-1,-1,-1,-1,-1,-1,-1,-1,-1,-1,-1,-1,-1,-1,-1,-1,-1,-1,-1,-1],"loss_changes":[2.814934E4,6.6817627E3,1.8226777E3,1.5283694E3,6.99451E3,7.153179E2,4.3983594E2,8.082403E2,3.7800586E2,2.2027476E3,2.6449883E3,1.6359106E2,5.1828906E2,1.6875E2,0E0,5.9668365E2,5.078174E1,2.7647778E2,1.5746185E2,1.2012864E3,8.0268945E2,1.8899961E3,1.11568726E2,6.977783E1,2.1241734E2,3.806858E2,2.6360254E2,1.5914612E2,1.1202539E2,1.3182822E2,7.53128E2,6.1393433E1,1.76765E1,1.5281934E2,1.15352264E2,3.7210968E1,1.018385E2,5.343269E2,4.4976324E2,4.1365057E2,3.105022E2,1.4561816E3,1.3678687E2,1.2427963E2,8.5797E1,6.0157715E1,0E0,1.5523587E2,0E0,1.03280174E2,1.7605573E2,2.0740552E2,4.8613117E1,2.5521149E1,3.7709045E1,9.686914E1,3.188803E1,0E0,0E0,0E0,0E0,0E0,0E0,0E0,0E0,0E0,0E0,0E0,0E0,0E0,0E0,0E0,0E0,0E0,0E0,0E0,0E0,0E0,0E0,0E0,0E0,0E0,0E0,0E0,0E0,0E0,0E0,0E0,0E0,0E0,0E0,0E0,0E0,0E0,0E0,0E0,0E0,0E0,0E0,0E0,0E0,0E0,0E0,0E0,0E0,0E0,0E0,0E0,0E0],"parents":[2147483647,0,0,1,1,2,2,3,3,4,4,5,5,6,6,7,7,8,8,9,9,10,10,11,11,12,12,13,13,15,15,16,16,17,17,18,18,19,19,20,20,21,21,22,22,23,23,24,24,25,25,26,26,27,27,28,28,29,29,30,30,31,31,32,32,33,33,34,34,35,35,36,36,37,37,38,38,39,39,40,40,41,41,42,42,43,43,44,44,45,45,47,47,49,49,50,50,51,51,52,52,53,53,54,54,55,55,56,56],"right_children":[2,4,6,8,10,12,14,16,18,20,22,24,26,28,-1,30,32,34,36,38,40,42,44,46,48,50,52,54,56,58,60,62,64,66,68,70,72,74,76,78,80,82,84,86,88,90,-1,92,-1,94,96,98,100,102,104,106,108,-1,-1,-1,-1,-1,-1,-1,-1,-1,-1,-1,-1,-1,-1,-1,-1,-1,-1,-1,-1,-1,-1,-1,-1,-1,-1,-1,-1,-1,-1,-1,-1,-1,-1,-1,-1,-1,-1,-1,-1,-1,-1,-1,-1,-1,-1,-1,-1,-1,-1,-1,-1],"split_conditions":[2E0,1E0,3E0,1E0,3E0,1E0,6.19E2,2E0,1.5066E4,1.0595E2,2E0,3E0,1.83E2,1.5E2,-1.18191816E-1,2.40291E6,1.0504146E0,1.7E1,1.38E2,2E0,1E0,4E0,3E0,7E0,3E0,1.075113E0,4E0,1.9175804E-1,9.14759E1,1E0,3E0,1.6659E4,3E0,2E0,1E0,1.1150213E7,3E0,2E0,2E0,2.26E2,2.7E1,1E0,5.791978E-1,1.058097E0,2.7E3,1.6E1,-1.15389265E-1,2E0,3.041662E-1,2E0,2E0,8.2998E0,6.1998194E-1,1E0,1.089977E2,2.570096E6,3.11905E2,-6.8550125E-2,5.6430914E-2,4.648431E-4,1.09926514E-1,3.1092215E-1,-3.558449E-2,1.7024623E-1,-3.2349434E-2,1.9888474E-1,3.1677708E-1,2.5172365E-1,8.9753024E-2,1.194729E-1,2.7322945E-1,-3.9277175E-3,2.992206E-1,-3.0081315E-2,7.974851E-2,2.8634919E-2,1.7867875E-1,-8.597107E-4,8.6554155E-2,1.8295512E-1,4.837681E-2,-8.225378E-2,-2.1654375E-2,3.3352646E-1,4.886349E-2,7.146626E-2,2.4877417E-1,3.0318293E-1,-1.0560638E-1,1.2086494E-1,2.4009097E-1,-1.4984473E-2,2.3330079E-1,-6.73519E-2,2.6841626E-2,6.2055357E-2,2.47295E-1,1.906766E-1,5.9740007E-2,-3.1738807E-2,2.887267E-1,2.2441895E-1,-9.691524E-2,-8.874203E-2,2.227844E-1,2.0763719E-1,2.61247E-1,1.5923579E-1,-8.727375E-2],"split_indices":[150,7,150,183,30,7,157,107,2,180,124,105,9,9,0,0,101,13,10,70,193,60,124,137,107,147,136,134,125,15,33,2,160,79,66,0,78,63,67,10,33,183,56,50,130,13,0,120,0,7,119,130,63,163,131,0,155,0,0,0,0,0,0,0,0,0,0,0,0,0,0,0,0,0,0,0,0,0,0,0,0,0,0,0,0,0,0,0,0,0,0,0,0,0,0,0,0,0,0,0,0,0,0,0,0,0,0,0,0],"split_type":[0,0,0,0,0,0,0,0,0,0,0,0,0,0,0,0,0,0,0,0,0,0,0,0,0,0,0,0,0,0,0,0,0,0,0,0,0,0,0,0,0,0,0,0,0,0,0,0,0,0,0,0,0,0,0,0,0,0,0,0,0,0,0,0,0,0,0,0,0,0,0,0,0,0,0,0,0,0,0,0,0,0,0,0,0,0,0,0,0,0,0,0,0,0,0,0,0,0,0,0,0,0,0,0,0,0,0,0,0],"sum_hessian":[6.6289445E4,6.089961E4,5.3898364E3,4.8220776E3,5.6077535E4,2.2836914E3,3.106145E3,3.481231E3,1.3408466E3,1.2463664E4,4.361387E4,7.8783496E2,1.4958564E3,3.0735261E3,3.2618828E1,3.342906E3,1.383249E2,1.0607177E3,2.80129E2,9.215333E3,3.2483308E3,4.331412E4,2.9974655E2,6.1569855E2,1.7213637E2,6.971153E2,7.9874115E2,9.615441E1,2.9773718E3,7.7334106E2,2.569565E3,1.17352745E2,2.0972158E1,7.07812E2,3.5290558E2,6.870479E1,2.114242E2,8.41626E3,7.9907324E2,2.2030955E3,1.0452354E3,4.3175734E4,1.3838968E2,1.5966208E2,1.4008447E2,6.103768E2,5.3218193E0,1.2849208E2,4.364428E1,4.7622076E2,2.2089453E2,7.034641E2,9.5277016E1,6.101945E1,3.5134964E1,2.9576355E3,1.9736168E1,6.777264E2,9.561465E1,1.4755319E3,1.0940332E3,1.1220104E2,5.1517034E0,1.5532453E1,5.439707E0,5.6693567E2,1.4087637E2,5.1115173E1,3.017904E2,4.0243546E1,2.8461246E1,2.006964E2,1.0727802E1,7.948104E3,4.681559E2,3.9699258E2,4.0208063E2,9.5589606E2,1.2471995E3,8.2798254E2,2.1725279E2,3.875753E4,4.4182036E3,1.1828646E2,2.010322E1,7.7417786E1,8.224429E1,1.3521375E2,4.870731E0,4.9168125E1,5.612086E2,9.532102E1,3.3171066E1,2.7637726E2,1.998435E2,1.4000795E2,8.088658E1,5.466745E2,1.5678963E2,9.1284935E1,3.992079E0,5.8970997E1,2.0484533E0,3.168909E1,3.4458737E0,4.176682E2,2.5399673E3,7.871598E0,1.1864571E1],"tree_param":{"num_deleted":"0","num_feature":"199","num_nodes":"109","size_leaf_vector":"1"}},{"base_weights":[-2.3132178E-1,-4.144042E-1,1.6507775E0,-5.537402E-1,5.196787E-1,1.0770974E0,2.06859E0,5.728561E-1,-6.5173304E-1,4.291229E-1,1.755203E0,1.3712063E0,2.0685221E-1,2.1005394E0,-1.15874425E-1,2.1973532E-1,1.3797996E0,-6.845968E-1,1.505165E0,2.2631013E-1,1.1408484E0,1.2026064E0,2.2530537E0,9.799741E-1,1.9464319E0,-5.0718415E-1,5.3998667E-1,1.0078328E0,2.1347609E0,1.168508E0,1.4075689E-2,1.7090496E0,7.4659896E-1,-5.2534306E-1,-9.722039E-1,2.1161785E0,4.1743082E-1,2.7456692E-1,-1.1475623E0,9.532638E-1,2.22144E0,1.641476E0,-4.6778524E-1,2.5726058E0,5.215854E-1,-6.885201E-2,1.2705637E0,2.1066833E0,1.1098613E0,-6.122489E-1,2.5147598E0,-1.0374001E0,7.4427575E-1,3.969303E-2,2.0424864E0,1.2390928E0,2.1659012E0,1.3270807E-2,1.4777426E-1,1.6677586E-2,-8.9867525E-2,-2.0961775E-2,1.8216714E-1,4.076187E-2,2.2035134E-1,-6.1896928E-2,2.4690737E-3,-9.963612E-2,-1.3765328E-2,1.1596606E-1,2.6295015E-1,9.639365E-3,2.463194E-1,2.4030883E-2,2.50244E-1,-1.2257377E-1,1.19988345E-1,3.536422E-2,1.19501255E-1,5.2914377E-2,2.4713103E-1,1.8935162E-1,-3.940802E-2,7.518596E-2,-1.2859386E-1,2.6132724E-1,-9.108356E-2,-2.6974311E-2,1.6903923E-1,-7.2516546E-2,9.468823E-2,1.503493E-1,4.472895E-2,2.1257181E-1,-1.0894811E-1,7.146677E-2,2.1298721E-1,1.0347469E-1,-7.295667E-2,9.2272505E-2,2.8956723E-1,-1.23272E-1,1.5650219E-1,1.0344841E-1,-5.5549145E-2,-6.378516E-2,1.8003386E-1,2.147692E-1,-7.9219475E-2,1.8587483E-2,2.1365538E-1,2.1748637E-1,-1.4867127E-2],"categories":[],"categories_nodes":[],"categories_segments":[],"categories_sizes":[],"default_left":[0,0,0,0,0,0,0,0,0,0,0,0,0,0,0,0,0,0,0,0,0,0,0,0,0,0,0,0,0,0,0,0,0,0,0,0,0,0,0,0,0,0,0,0,0,0,0,0,0,0,0,0,0,0,0,0,0,0,0,0,0,0,0,0,0,0,0,0,0,0,0,0,0,0,0,0,0,0,0,0,0,0,0,0,0,0,0,0,0,0,0,0,0,0,0,0,0,0,0,0,0,0,0,0,0,0,0,0,0,0,0,0,0],"id":3,"left_children":[1,3,5,7,9,11,13,15,17,19,21,23,25,27,-1,29,31,33,35,37,39,41,43,45,47,49,51,53,55,57,59,61,63,65,67,69,71,73,75,77,79,81,83,85,87,89,91,93,95,97,99,101,103,105,107,109,111,-1,-1,-1,-1,-1,-1,-1,-1,-1,-1,-1,-1,-1,-1,-1,-1,-1,-1,-1,-1,-1,-1,-1,-1,-1,-1,-1,-1,-1,-1,-1,-1,-1,-1,-1,-1,-1,-1,-1,-1,-1,-1,-1,-1,-1,-1,-1,-1,-1,-1,-1,-1,-1,-1,-1,-1],"loss_changes":[2.2314748E4,7.6814766E3,1.3738525E3,5.6701035E3,8.564241E2,6.1945557E2,3.4483887E2,1.170884E3,3.3501387E3,1.0303009E3,1.4113318E2,4.0532886E2,1.4604034E2,1.2082031E2,0E0,5.580847E2,2.5952124E2,2.1311133E3,4.706012E2,3.6876453E2,3.1876733E2,1.8400027E2,1.502096E2,3.289569E2,9.572998E1,6.3599476E1,1.3557745E2,1.01847755E2,8.622656E1,1.6300983E2,3.2792358E2,1.780503E2,2.113234E2,1.5426631E3,3.3421875E2,2.1986438E2,1.6816238E2,4.0922458E2,3.6112717E1,1.953617E2,9.738904E1,1.0241211E2,5.3637947E1,3.510022E1,4.10868E1,1.5738066E2,1.613678E2,3.9598145E1,4.6734543E1,3.740927E1,1.4294815E0,2.65233E1,1.4049821E2,6.507432E1,1.6364777E1,1.03052155E2,6.420215E1,0E0,0E0,0E0,0E0,0E0,0E0,0E0,0E0,0E0,0E0,0E0,0E0,0E0,0E0,0E0,0E0,0E0,0E0,0E0,0E0,0E0,0E0,0E0,0E0,0E0,0E0,0E0,0E0,0E0,0E0,0E0,0E0,0E0,0E0,0E0,0E0,0E0,0E0,0E0,0E0,0E0,0E0,0E0,0E0,0E0,0E0,0E0,0E0,0E0,0E0,0E0,0E0,0E0,0E0,0E0,0E0],"parents":[2147483647,0,0,1,1,2,2,3,3,4,4,5,5,6,6,7,7,8,8,9,9,10,10,11,11,12,12,13,13,15,15,16,16,17,17,18,18,19,19,20,20,21,21,22,22,23,23,24,24,25,25,26,26,27,27,28,28,29,29,30,30,31,31,32,32,33,33,34,34,35,35,36,36,37,37,38,38,39,39,40,40,41,41,42,42,43,43,44,44,45,45,46,46,47,47,48,48,49,49,50,50,51,51,52,52,53,53,54,54,55,55,56,56],"right_children":[2,4,6,8,10,12,14,16,18,20,22,24,26,28,-1,30,32,34,36,38,40,42,44,46,48,50,52,54,56,58,60,62,64,66,68,70,72,74,76,78,80,82,84,86,88,90,92,94,96,98,100,102,104,106,108,110,112,-1,-1,-1,-1,-1,-1,-1,-1,-1,-1,-1,-1,-1,-1,-1,-1,-1,-1,-1,-1,-1,-1,-1,-1,-1,-1,-1,-1,-1,-1,-1,-1,-1,-1,-1,-1,-1,-1,-1,-1,-1,-1,-1,-1,-1,-1,-1,-1,-1,-1,-1,-1,-1,-1,-1,-1],"split_conditions":[2E0,6.996E0,3E0,1E0,3E0,5.3636E0,6.19E2,1E0,5E0,1.5995E2,7E0,2E0,2.597515E6,1.5E2,-1.15874425E-1,-4E0,1.7E1,1E0,1.4E1,1.4E1,2E0,5E0,2.6E1,2.40291E6,3E0,7E0,1.5E2,3.7E1,1.6E1,2.40291E6,1E0,2E0,2E0,6E1,6.4E1,1E1,3E0,1E0,3.1E1,2.3E2,1E0,4.5E1,3.5E1,3E0,1E0,1E0,3E0,3.21E2,4E0,1E0,4.8E1,2E2,3.3E2,4E0,7E0,3E0,3.2E1,1.3270807E-2,1.4777426E-1,1.6677586E-2,-8.9867525E-2,-2.0961775E-2,1.8216714E-1,4.076187E-2,2.2035134E-1,-6.1896928E-2,2.4690737E-3,-9.963612E-2,-1.3765328E-2,1.1596606E-1,2.6295015E-1,9.639365E-3,2.463194E-1,2.4030883E-2,2.50244E-1,-1.2257377E-1,1.19988345E-1,3.536422E-2,1.19501255E-1,5.2914377E-2,2.4713103E-1,1.8935162E-1,-3.940802E-2,7.518596E-2,-1.2859386E-1,2.6132724E-1,-9.108356E-2,-2.6974311E-2,1.6903923E-1,-7.2516546E-2,9.468823E-2,1.503493E-1,4.472895E-2,2.1257181E-1,-1.0894811E-1,7.146677E-2,2.1298721E-1,1.0347469E-1,-7.295667E-2,9.2272505E-2,2.8956723E-1,-1.23272E-1,1.5650219E-1,1.0344841E-1,-5.5549145E-2,-6.378516E-2,1.8003386E-1,2.147692E-1,-7.9219475E-2,1.8587483E-2,2.1365538E-1,2.1748637E-1,-1.4867127E-2],"split_indices":[150,181,150,7,5,157,157,5,5,180,5,119,0,9,0,21,13,71,6,163,76,6,6,0,137,153,9,35,13,0,54,30,5,178,175,5,79,186,13,181,196,29,31,163,30,5,109,29,5,7,29,157,11,123,109,143,103,0,0,0,0,0,0,0,0,0,0,0,0,0,0,0,0,0,0,0,0,0,0,0,0,0,0,0,0,0,0,0,0,0,0,0,0,0,0,0,0,0,0,0,0,0,0,0,0,0,0,0,0,0,0,0,0],"split_type":[0,0,0,0,0,0,0,0,0,0,0,0,0,0,0,0,0,0,0,0,0,0,0,0,0,0,0,0,0,0,0,0,0,0,0,0,0,0,0,0,0,0,0,0,0,0,0,0,0,0,0,0,0,0,0,0,0,0,0,0,0,0,0,0,0,0,0,0,0,0,0,0,0,0,0,0,0,0,0,0,0,0,0,0,0,0,0,0,0,0,0,0,0,0,0,0,0,0,0,0,0,0,0,0,0,0,0,0,0,0,0,0,0],"sum_hessian":[6.4756418E4,5.9016344E4,5.740073E3,5.1356035E4,7.6603096E3,2.42036E3,3.3197131E3,4.1091714E3,4.7246863E4,7.138455E3,5.2185443E2,1.8085615E3,6.1179865E2,3.287517E3,3.2196095E1,2.8592344E3,1.2499369E3,4.6538457E4,7.0840454E2,5.55642E3,1.582035E3,2.4894731E2,2.7290714E2,1.0780461E3,7.305153E2,1.9446411E2,4.1733453E2,1.0075694E2,3.18676E3,5.0853238E2,2.3507021E3,8.212213E2,4.2871555E2,2.995475E4,1.6583707E4,4.529969E2,2.5540767E2,5.3686484E3,1.8777168E2,1.3496293E3,2.3240584E2,1.9716307E2,5.1784245E1,2.2997766E2,4.2929478E1,2.3405037E2,8.439958E2,6.118019E2,1.1871344E2,1.887009E2,5.763217E0,4.738448E1,3.6995004E2,5.2587994E1,4.8168953E1,1.08444435E2,3.0783157E3,1.1724438E2,3.91288E2,2.0145002E3,3.3620187E2,4.5483604E1,7.7573773E2,3.4883246E2,7.988308E1,2.5597453E4,4.3572974E3,1.6116983E4,4.6672394E2,1.5934149E2,2.936554E2,2.216688E2,3.3738888E1,5.2884355E3,8.021264E1,1.8218243E2,5.5892596E0,3.884931E2,9.611361E2,3.0301376E1,2.0210446E2,1.7550237E2,2.166071E1,2.0823332E1,3.0960913E1,2.2757076E2,2.4069169E0,2.6057043E1,1.6872433E1,1.4235452E2,9.169585E1,6.572216E2,1.8677419E2,6.0851276E2,3.2891257E0,8.678865E1,3.1924795E1,1.2027643E1,1.7667326E2,1.7734483E0,3.9897685E0,4.4565983E1,2.8184996E0,3.0259222E2,6.7357834E1,3.843491E1,1.4153087E1,4.6678875E1,1.4900756E0,5.0448063E1,5.7996372E1,3.066502E3,1.1813627E1],"tree_param":{"num_deleted":"0","num_feature":"199","num_nodes":"113","size_leaf_vector":"1"}},{"base_weights":[-2.2249086E-1,-3.9191884E-1,1.4375088E0,-5.2975947E-1,4.7269496E-1,9.5583004E-1,1.7948129E0,4.882046E-1,-6.2397945E-1,3.0494723E-1,1.0118238E0,1.6964048E-1,1.2005105E0,1.8630599E0,5.9575087E-1,8.418308E-1,-1.2508954E-1,-6.7959493E-1,5.7814217E-1,2.2960347E-1,1.8948915E0,1.7918043E0,8.137432E-1,-8.672105E-2,1.6390803E0,1.6833669E0,8.9031065E-1,1.603663E0,1.9820364E0,-1.6561289E-1,1.4417982E0,-1.2926134E-1,1.1435605E0,-4.4786382E-1,3.756008E-1,-7.607864E-1,-1.1614577E-1,9.586363E-2,1.5753518E0,5.832665E-2,5.978598E-1,2.1742265E0,8.349126E-1,1.332826E0,2.6558945E0,9.0438724E-1,-6.2827796E-1,6.93864E-1,-4.445157E-1,2.2703464E0,9.8029894E-1,1.7093841E0,-1.2012451E-1,5.28799E-1,1.9149176E0,1.7469627E0,1.0202644E0,1.9938613E0,1.233411E0,-9.6297735E-1,1.3421211E0,1.8873525E0,-9.514619E-2,1.2584697E-1,-3.3422485E-2,1.22601226E-1,-5.1595356E-2,-2.9785967E-2,-9.1803335E-2,2.0159042E-2,9.788261E-2,1.3899146E-1,-7.703261E-2,6.7595534E-2,-3.488074E-2,-7.3088068E-3,1.6719317E-1,1.9344352E-1,-1.5260135E-2,5.730909E-2,-1.4435499E-2,7.2448246E-2,-1.1277461E-1,1.5327384E-1,2.418139E-1,-8.479135E-3,1.3697578E-1,1.6363798E-1,-2.421259E-2,2.9247928E-1,-3.6940034E-2,7.2470576E-2,1.588072E-1,-8.6723275E-2,2.2833562E-1,-2.8798638E-2,1.3159089E-1,-6.002732E-2,1.3314997E-1,2.3126046E-1,7.6696545E-2,1.5170321E-1,-1.1719568E-1,1.5670978E-1,2.1512154E-1,6.6420236E-3,1.07323326E-1,2.014621E-1,-8.1503E-2,1.5405591E-1,2.0728247E-1,7.1574263E-3,1.4416425E-1,1.9962183E-1,-9.300032E-2,-3.3146847E-2,1.6645227E-1,2.3231295E-1,-1.2571783E-1,-1.0819143E-1,1.8617842E-1,2.0150022E-1,-9.769296E-2,-7.123571E-2,2.4053204E-1],"categories":[],"categories_nodes":[],"categories_segments":[],"categories_sizes":[],"default_left":[0,0,0,0,0,0,0,0,0,0,0,0,0,0,0,0,0,0,0,0,0,0,0,0,0,0,0,0,0,0,0,0,0,0,0,0,0,0,0,0,0,0,0,0,0,0,0,0,0,0,0,0,0,0,0,0,0,0,0,0,0,0,0,0,0,0,0,0,0,0,0,0,0,0,0,0,0,0,0,0,0,0,0,0,0,0,0,0,0,0,0,0,0,0,0,0,0,0,0,0,0,0,0,0,0,0,0,0,0,0,0,0,0,0,0,0,0,0,0,0,0,0,0,0,0],"id":4,"left_children":[1,3,5,7,9,11,13,15,17,19,21,23,25,27,29,31,33,35,37,39,41,43,45,47,49,51,53,55,57,59,61,63,65,67,69,71,73,75,77,79,81,83,85,87,89,91,93,95,97,99,101,103,-1,105,107,109,111,113,115,117,119,121,123,-1,-1,-1,-1,-1,-1,-1,-1,-1,-1,-1,-1,-1,-1,-1,-1,-1,-1,-1,-1,-1,-1,-1,-1,-1,-1,-1,-1,-1,-1,-1,-1,-1,-1,-1,-1,-1,-1,-1,-1,-1,-1,-1,-1,-1,-1,-1,-1,-1,-1,-1,-1,-1,-1,-1,-1,-1,-1,-1,-1,-1,-1],"loss_changes":[1.7715217E4,6.81167E3,1.0022539E3,4.728283E3,7.104618E2,4.7810742E2,2.7286426E2,9.0591705E2,3.0168945E3,7.177923E2,2.866255E2,2.2290364E2,2.8250854E2,9.456836E1,1.1732256E2,7.763998E2,2.4716663E2,1.9727383E3,9.596196E2,3.6109244E2,7.8461975E1,1.4589844E2,1.9517413E2,1.4119482E2,3.4325424E1,5.7630615E1,4.2739874E2,8.191382E1,1.6723633E1,1.1738701E2,5.9206924E1,1.7930698E2,2.7721167E2,6.5298965E1,6.2742973E1,7.744082E2,1.0014242E3,3.5858102E2,4.0389758E2,4.0792255E2,3.979348E2,2.9770447E1,2.8730343E1,1.19005554E2,1.0659601E2,1.7097876E2,6.365253E1,9.745165E1,9.665285E1,1.0294647E0,5.3493572E1,4.2793945E1,0E0,2.1549597E2,8.364282E1,5.077002E1,7.977713E1,1.6546875E1,2.5054348E1,6.4548325E1,4.461886E1,2.6418976E1,3.308033E1,0E0,0E0,0E0,0E0,0E0,0E0,0E0,0E0,0E0,0E0,0E0,0E0,0E0,0E0,0E0,0E0,0E0,0E0,0E0,0E0,0E0,0E0,0E0,0E0,0E0,0E0,0E0,0E0,0E0,0E0,0E0,0E0,0E0,0E0,0E0,0E0,0E0,0E0,0E0,0E0,0E0,0E0,0E0,0E0,0E0,0E0,0E0,0E0,0E0,0E0,0E0,0E0,0E0,0E0,0E0,0E0,0E0,0E0,0E0,0E0,0E0,0E0],"parents":[2147483647,0,0,1,1,2,2,3,3,4,4,5,5,6,6,7,7,8,8,9,9,10,10,11,11,12,12,13,13,14,14,15,15,16,16,17,17,18,18,19,19,20,20,21,21,22,22,23,23,24,24,25,25,26,26,27,27,28,28,29,29,30,30,31,31,32,32,33,33,34,34,35,35,36,36,37,37,38,38,39,39,40,40,41,41,42,42,43,43,44,44,45,45,46,46,47,47,48,48,49,49,50,50,51,51,53,53,54,54,55,55,56,56,57,57,58,58,59,59,60,60,61,61,62,62],"right_children":[2,4,6,8,10,12,14,16,18,20,22,24,26,28,30,32,34,36,38,40,42,44,46,48,50,52,54,56,58,60,62,64,66,68,70,72,74,76,78,80,82,84,86,88,90,92,94,96,98,100,102,104,-1,106,108,110,112,114,116,118,120,122,124,-1,-1,-1,-1,-1,-1,-1,-1,-1,-1,-1,-1,-1,-1,-1,-1,-1,-1,-1,-1,-1,-1,-1,-1,-1,-1,-1,-1,-1,-1,-1,-1,-1,-1,-1,-1,-1,-1,-1,-1,-1,-1,-1,-1,-1,-1,-1,-1,-1,-1,-1,-1,-1,-1,-1,-1,-1,-1,-1,-1,-1,-1],"split_conditions":[2E0,6.996E0,3E0,1E0,5E0,2.597515E6,2E0,1E0,2E0,6E0,1E0,6E0,1E0,4E0,1.63E2,2.40291E6,1E0,6.85E1,1.1207792E0,1E0,1.5E1,1.64E2,1E0,1E0,1E1,7E0,4E0,1.9175804E-1,4E0,8.1567E1,2.71E2,5.25856E5,1E0,1E0,3.37E2,-4.8E1,4E0,1.0994563E0,1.08E2,1E0,1.2E1,1.3E1,1.7E1,2E0,9.6E1,2E0,8E0,1.6860089E-1,4E0,4.54E2,5.3636E0,1.0253546E0,-1.2012451E-1,1.058097E0,1.1676601E0,3E0,4.152499E6,2E0,1.51E2,1.39E2,5.9916574E-1,3.46747E1,1.94139E2,1.2584697E-1,-3.3422485E-2,1.22601226E-1,-5.1595356E-2,-2.9785967E-2,-9.1803335E-2,2.0159042E-2,9.788261E-2,1.3899146E-1,-7.703261E-2,6.7595534E-2,-3.488074E-2,-7.3088068E-3,1.6719317E-1,1.9344352E-1,-1.5260135E-2,5.730909E-2,-1.4435499E-2,7.2448246E-2,-1.1277461E-1,1.5327384E-1,2.418139E-1,-8.479135E-3,1.3697578E-1,1.6363798E-1,-2.421259E-2,2.9247928E-1,-3.6940034E-2,7.2470576E-2,1.588072E-1,-8.6723275E-2,2.2833562E-1,-2.8798638E-2,1.3159089E-1,-6.002732E-2,1.3314997E-1,2.3126046E-1,7.6696545E-2,1.5170321E-1,-1.1719568E-1,1.5670978E-1,2.1512154E-1,6.6420236E-3,1.07323326E-1,2.014621E-1,-8.1503E-2,1.5405591E-1,2.0728247E-1,7.1574263E-3,1.4416425E-1,1.9962183E-1,-9.300032E-2,-3.3146847E-2,1.6645227E-1,2.3231295E-1,-1.2571783E-1,-1.0819143E-1,1.8617842E-1,2.0150022E-1,-9.769296E-2,-7.123571E-2,2.4053204E-1],"split_indices":[150,181,150,7,161,0,134,187,5,5,14,5,7,150,9,0,15,178,60,193,6,28,111,7,6,161,5,134,160,158,25,0,135,44,11,18,29,79,29,77,82,5,13,56,33,66,29,106,7,25,157,144,0,50,163,143,0,82,9,25,45,125,128,0,0,0,0,0,0,0,0,0,0,0,0,0,0,0,0,0,0,0,0,0,0,0,0,0,0,0,0,0,0,0,0,0,0,0,0,0,0,0,0,0,0,0,0,0,0,0,0,0,0,0,0,0,0,0,0,0,0,0,0,0,0],"split_type":[0,0,0,0,0,0,0,0,0,0,0,0,0,0,0,0,0,0,0,0,0,0,0,0,0,0,0,0,0,0,0,0,0,0,0,0,0,0,0,0,0,0,0,0,0,0,0,0,0,0,0,0,0,0,0,0,0,0,0,0,0,0,0,0,0,0,0,0,0,0,0,0,0,0,0,0,0,0,0,0,0,0,0,0,0,0,0,0,0,0,0,0,0,0,0,0,0,0,0,0,0,0,0,0,0,0,0,0,0,0,0,0,0,0,0,0,0,0,0,0,0,0,0,0,0],"sum_hessian":[6.2984348E4,5.71519E4,5.832448E3,4.9293668E4,7.858231E3,2.4854744E3,3.3469739E3,4.175618E3,4.511805E4,5.994601E3,1.8636298E3,5.9033765E2,1.8951368E3,3.166209E3,1.8076482E2,2.648257E3,1.5273611E3,4.3123406E4,1.994644E3,5.7244756E3,2.7012524E2,3.757999E2,1.48783E3,5.0344632E2,8.689131E1,7.395415E2,1.1555953E3,1.000142E3,2.166067E3,9.556735E1,8.5197464E1,6.2792004E2,2.020337E3,9.287439E2,5.986171E2,3.769177E4,5.431635E3,1.3451757E3,6.494685E2,3.90801E3,1.8164656E3,2.1295439E2,5.717085E1,2.4709373E2,1.2870618E2,1.4001882E3,8.7641655E1,1.5793881E2,3.455075E2,4.3123074E1,4.3768234E1,7.333348E2,6.206764E0,8.553268E2,3.002685E2,8.0131995E2,1.9882211E2,2.1307473E3,3.531965E1,6.274565E1,3.28217E1,6.587311E1,1.9324354E1,8.014544E1,5.477746E2,1.924958E3,9.5378944E1,7.053429E2,2.23401E2,4.65632E2,1.3298515E2,1.6580824E2,3.7525965E4,1.2327632E3,4.1988716E3,1.2157979E3,1.2937775E2,5.3762573E2,1.1184273E2,1.1035138E3,2.8044963E3,1.6928282E3,1.23637314E2,6.067181E1,1.5228258E2,2.1331429E1,3.5839424E1,2.0713235E2,3.9961372E1,1.1823066E2,1.047552E1,1.110416E3,2.897722E2,8.164342E1,5.99824E0,6.14623E1,9.647651E1,3.1825812E2,2.7249393E1,4.1420517E1,1.7025568E0,3.5268147E1,8.500086E0,5.581396E2,1.7519514E2,4.6312476E2,3.9220206E2,2.8994125E2,1.0327241E1,4.9408813E2,3.0723178E2,6.1509502E1,1.373126E2,2.1293481E3,1.3991476E0,7.678572E0,2.7641079E1,4.5892425E0,5.815641E1,5.6031456E0,2.7218555E1,6.334651E1,2.5265992E0,1.6072224E1,3.2521303E0],"tree_param":{"num_deleted":"0","num_feature":"199","num_nodes":"125","size_leaf_vector":"1"}},{"base_weights":[-2.0270666E-1,-3.6047167E-1,1.2862555E0,-1.4853327E-1,-8.921284E-1,8.471774E-1,1.6149752E0,-3.334521E-1,4.2137346E-1,-9.209087E-1,8.547416E-2,5.449543E-1,1.3643557E0,1.6759001E0,4.607026E-1,6.2032825E-1,-4.571612E-1,2.6426134E-1,9.830676E-1,-1.0271788E0,-8.350831E-1,-1.20426126E-1,1.542174E0,-2.680741E-1,8.174221E-1,1.5245403E0,-1.372941E-1,1.0301639E0,1.7156615E0,1.0019324E0,-5.967045E-1,3.5845038E-1,1.1255318E0,-5.123126E-1,4.4837752E-1,6.515525E-1,6.398416E-2,8.53221E-1,1.8026829E0,-1.0285535E0,1.9113104E-1,-8.5826254E-1,-8.758114E-2,9.4247824E-1,-6.4760596E-1,6.6587344E-2,3.8837423E0,1.2134014E0,-4.4006258E-1,7.139623E-1,2.1039505E0,-1.4073622E-1,1.5686737E0,5.3696316E-1,-7.6050353E-1,-2.5204763E-1,1.7844298E0,1.5223703E0,1.7971938E0,1.4755925E0,-2.3617771E-1,-1.0123355E0,6.8625516E-1,-1.8192163E-2,9.015536E-2,1.4000921E-1,5.473066E-2,-5.8505584E-2,1.853945E-2,2.414137E-2,2.1658123E-1,4.788215E-2,1.8045765E-1,-2.914377E-3,7.5110406E-2,7.6387726E-2,1.7453341E-1,1.8792467E-1,-1.2760936E-1,-1.0329676E-1,-1.8857254E-2,-8.610403E-2,2.5393206E-1,1.0559404E-1,-3.9400864E-2,1.5880106E-1,-8.8926554E-2,-9.110185E-2,4.6919357E-2,-4.0672038E-2,2.9645088E-1,2.693674E-3,4.730866E-1,1.5526277E-1,-1.1024392E-1,-5.7317972E-2,8.7626286E-2,9.4272375E-2,1.6151045E-2,2.1707074E-1,-8.823647E-2,-9.738825E-2,1.1606156E-1,1.5901653E-1,-7.334931E-2,1.2194963E-1,-7.419168E-2,-1.01317756E-1,1.5122774E-1,-6.302493E-2,1.707152E-1,2.3556847E-2,1.8432343E-1,-1.2957282E-1,1.5421559E-1,-7.782527E-2,1.7990397E-1,1.696577E-1,-1.0666169E-1,-7.841232E-2,1.4455692E-1,1.688406E-1,-1.1175924E-1,-5.9133347E-2,2.0094942E-1],"categories":[],"categories_nodes":[],"categories_segments":[],"categories_sizes":[],"default_left":[0,0,0,0,0,0,0,0,0,0,0,0,0,0,0,0,0,0,0,0,0,0,0,0,0,0,0,0,0,0,0,0,0,0,0,0,0,0,0,0,0,0,0,0,0,0,0,0,0,0,0,0,0,0,0,0,0,0,0,0,0,0,0,0,0,0,0,0,0,0,0,0,0,0,0,0,0,0,0,0,0,0,0,0,0,0,0,0,0,0,0,0,0,0,0,0,0,0,0,0,0,0,0,0,0,0,0,0,0,0,0,0,0,0,0,0,0,0,0,0,0,0,0,0,0],"id":5,"left_children":[1,3,5,7,9,11,13,15,17,19,21,23,25,27,29,31,33,35,37,39,41,43,45,47,49,51,53,55,57,59,61,63,65,67,69,71,73,75,77,79,-1,81,83,85,87,89,91,93,95,97,99,101,103,105,107,109,111,113,115,117,119,121,123,-1,-1,-1,-1,-1,-1,-1,-1,-1,-1,-1,-1,-1,-1,-1,-1,-1,-1,-1,-1,-1,-1,-1,-1,-1,-1,-1,-1,-1,-1,-1,-1,-1,-1,-1,-1,-1,-1,-1,-1,-1,-1,-1,-1,-1,-1,-1,-1,-1,-1,-1,-1,-1,-1,-1,-1,-1,-1,-1,-1,-1,-1],"loss_changes":[1.4401005E4,6.245748E3,8.4636035E2,4.176958E3,4.4458398E2,3.92625E2,2.3535547E2,3.531106E3,8.5662915E2,1.3911719E2,1.359727E2,3.5246933E2,2.2333081E2,8.011133E1,9.772874E1,4.542008E2,1.3231519E3,5.885988E2,2.2429004E2,2.9648438E1,1.4712305E2,2.2339268E2,1.9371048E2,1.0242352E2,1.5705597E2,6.1827393E1,3.8364124E1,1.8176297E2,4.4581055E1,6.640164E1,3.166875E1,6.6474805E2,1.853938E2,1.267376E3,5.401952E2,5.1429895E2,3.201834E2,1.4481873E2,7.059192E1,2.5202637E1,0E0,7.995068E1,9.034029E1,1.5775894E2,7.8785E1,4.983564E1,7.0717865E1,3.4597496E1,6.3412506E1,1.3938141E2,1.9489197E1,2.5589802E1,4.1574097E1,3.928763E1,2.8726498E1,5.3175995E1,1.0328033E1,5.2029297E1,1.1412109E1,4.7654327E1,3.0648022E1,1.4473743E1,2.6224247E1,0E0,0E0,0E0,0E0,0E0,0E0,0E0,0E0,0E0,0E0,0E0,0E0,0E0,0E0,0E0,0E0,0E0,0E0,0E0,0E0,0E0,0E0,0E0,0E0,0E0,0E0,0E0,0E0,0E0,0E0,0E0,0E0,0E0,0E0,0E0,0E0,0E0,0E0,0E0,0E0,0E0,0E0,0E0,0E0,0E0,0E0,0E0,0E0,0E0,0E0,0E0,0E0,0E0,0E0,0E0,0E0,0E0,0E0,0E0,0E0,0E0,0E0],"parents":[2147483647,0,0,1,1,2,2,3,3,4,4,5,5,6,6,7,7,8,8,9,9,10,10,11,11,12,12,13,13,14,14,15,15,16,16,17,17,18,18,19,19,20,20,21,21,22,22,23,23,24,24,25,25,26,26,27,27,28,28,29,29,30,30,31,31,32,32,33,33,34,34,35,35,36,36,37,37,38,38,39,39,41,41,42,42,43,43,44,44,45,45,46,46,47,47,48,48,49,49,50,50,51,51,52,52,53,53,54,54,55,55,56,56,57,57,58,58,59,59,60,60,61,61,62,62],"right_children":[2,4,6,8,10,12,14,16,18,20,22,24,26,28,30,32,34,36,38,40,42,44,46,48,50,52,54,56,58,60,62,64,66,68,70,72,74,76,78,80,-1,82,84,86,88,90,92,94,96,98,100,102,104,106,108,110,112,114,116,118,120,122,124,-1,-1,-1,-1,-1,-1,-1,-1,-1,-1,-1,-1,-1,-1,-1,-1,-1,-1,-1,-1,-1,-1,-1,-1,-1,-1,-1,-1,-1,-1,-1,-1,-1,-1,-1,-1,-1,-1,-1,-1,-1,-1,-1,-1,-1,-1,-1,-1,-1,-1,-1,-1,-1,-1,-1,-1,-1,-1,-1,-1,-1,-1],"split_conditions":[2E0,1E0,3E0,2E0,2.159E2,2E0,2E0,1E0,2.5E2,5.954E1,1E0,2.597515E6,4E0,1.6860089E-1,3.41E2,1E0,2E0,1E0,3E0,1E1,1E0,3.3E2,2.4E1,6.1E1,3E0,1.39E2,1.6805299E-1,3E0,4E0,1.0379E4,8.1567E1,1.4995E2,1.7E1,2.5E2,4E0,3.35E2,2E0,1.95E2,7E0,1.8301E4,1.9113104E-1,9E0,1E0,4.5E1,4.06E2,5.82E2,4E0,2.126392E-1,2E0,1.7E1,3.30678E1,1.02E2,5E0,1E0,6.1998194E-1,3E0,2.22E2,1.18E2,1.01E2,4.72484E1,2E0,9.7766036E-1,3E0,-1.8192163E-2,9.015536E-2,1.4000921E-1,5.473066E-2,-5.8505584E-2,1.853945E-2,2.414137E-2,2.1658123E-1,4.788215E-2,1.8045765E-1,-2.914377E-3,7.5110406E-2,7.6387726E-2,1.7453341E-1,1.8792467E-1,-1.2760936E-1,-1.0329676E-1,-1.8857254E-2,-8.610403E-2,2.5393206E-1,1.0559404E-1,-3.9400864E-2,1.5880106E-1,-8.8926554E-2,-9.110185E-2,4.6919357E-2,-4.0672038E-2,2.9645088E-1,2.693674E-3,4.730866E-1,1.5526277E-1,-1.1024392E-1,-5.7317972E-2,8.7626286E-2,9.4272375E-2,1.6151045E-2,2.1707074E-1,-8.823647E-2,-9.738825E-2,1.1606156E-1,1.5901653E-1,-7.334931E-2,1.2194963E-1,-7.419168E-2,-1.01317756E-1,1.5122774E-1,-6.302493E-2,1.707152E-1,2.3556847E-2,1.8432343E-1,-1.2957282E-1,1.5421559E-1,-7.782527E-2,1.7990397E-1,1.696577E-1,-1.0666169E-1,-7.841232E-2,1.4455692E-1,1.688406E-1,-1.1175924E-1,-5.9133347E-2,2.0094942E-1],"split_indices":[150,71,150,161,178,119,134,6,181,1,15,0,137,106,25,183,58,194,67,163,81,176,13,12,60,9,108,142,150,2,158,1,13,1,60,179,70,28,163,2,0,82,194,33,33,33,163,114,145,13,156,1,160,194,63,147,26,9,24,126,62,51,154,0,0,0,0,0,0,0,0,0,0,0,0,0,0,0,0,0,0,0,0,0,0,0,0,0,0,0,0,0,0,0,0,0,0,0,0,0,0,0,0,0,0,0,0,0,0,0,0,0,0,0,0,0,0,0,0,0,0,0,0,0,0],"split_type":[0,0,0,0,0,0,0,0,0,0,0,0,0,0,0,0,0,0,0,0,0,0,0,0,0,0,0,0,0,0,0,0,0,0,0,0,0,0,0,0,0,0,0,0,0,0,0,0,0,0,0,0,0,0,0,0,0,0,0,0,0,0,0,0,0,0,0,0,0,0,0,0,0,0,0,0,0,0,0,0,0,0,0,0,0,0,0,0,0,0,0,0,0,0,0,0,0,0,0,0,0,0,0,0,0,0,0,0,0,0,0,0,0,0,0,0,0,0,0,0,0,0,0,0,0],"sum_hessian":[6.1302395E4,5.5429992E4,5.8724023E3,3.9632332E4,1.5797661E4,2.515702E3,3.3567004E3,2.992343E4,9.708903E3,1.534594E4,4.517215E2,1.5891217E3,9.2658026E2,3.1879802E3,1.6872015E2,3.4351187E3,2.648831E4,7.5879414E3,2.1209617E3,6.8514453E3,8.494495E3,3.9658295E2,5.513852E1,3.9888565E2,1.190236E3,8.372531E2,8.93271E1,1.8647577E2,3.0015044E3,1.1163346E2,5.7086697E1,2.2635117E3,1.1716068E3,2.4968076E4,1.5202344E3,2.58564E3,5.002302E3,1.8326649E3,2.8829672E2,6.848891E3,2.5543072E0,8.238866E3,2.556284E2,1.3122276E2,2.653602E2,3.445466E1,2.068386E1,4.0861084E1,3.5802457E2,1.1030835E3,8.715256E1,2.1559608E1,8.1569354E2,4.2972775E1,4.6354332E1,6.931309E1,1.1716268E2,8.962959E2,2.1052085E3,8.060488E1,3.102858E1,4.3277378E1,1.3809319E1,1.1349421E3,1.1285695E3,7.9343616E2,3.7817072E2,2.2610822E4,2.357253E3,1.3577552E3,1.6247917E2,2.249991E3,3.356489E2,4.406086E3,5.9621576E2,1.6675214E3,1.6514355E2,2.816814E2,6.6153054E0,6.81286E3,3.603113E1,8.232882E3,5.984284E0,5.350675E1,2.0212166E2,9.712693E1,3.409584E1,2.148655E2,5.049471E1,3.0356316E1,4.0983434E0,3.9107409E0,1.677312E1,3.59279E1,4.933187E0,3.2565622E2,3.2368343E1,7.7956976E2,3.2351373E2,8.551407E1,1.6384913E0,1.3297789E1,8.261819E0,8.0845557E2,7.2379436E0,2.8049372E1,1.4923403E1,4.22153E1,4.139028E0,5.8666492E1,1.06466E1,4.468629E0,1.1269405E2,5.7993155E0,8.904966E2,1.2064768E0,2.1040022E3,7.446459E1,6.1402874E0,2.3805904E1,7.2226768E0,1.0591915E0,4.2218185E1,7.307264E0,6.502055E0],"tree_param":{"num_deleted":"0","num_feature":"199","num_nodes":"125","size_leaf_vector":"1"}},{"base_weights":[-1.8747364E-1,-3.2323605E-1,1.3110789E0,-1.23987354E-1,-8.6182374E-1,9.2268294E-1,1.6390493E0,-2.5677148E-1,4.5420685E-1,-8.925502E-1,1.0358855E-1,1.2304637E0,3.227568E-1,2.0307953E0,1.55864E0,5.036189E-1,-3.684092E-1,4.9962723E-1,-9.893889E-1,-9.1197354E-1,-3.1394202E-1,-7.314314E-2,1.8243676E0,8.330447E-1,1.5248061E0,4.1380264E-2,1.4080884E0,2.1240299E0,7.8933537E-1,1.5872052E0,4.9032182E-1,8.105016E-1,1.1517391E-1,-3.9949566E-1,1.3926264E0,4.1880572E-1,1.2070605E0,-1.1364771E0,1.8310828E0,-9.1540235E-1,1.1893411E0,-4.32944E-1,1.9637197E0,2.4180345E-1,-8.072659E-1,9.818481E-1,4.623599E-1,1.0346701E0,-4.4546854E-1,-5.050451E-1,1.5693729E0,-3.7751492E-2,2.4868357E0,4.7327912E-1,1.6836958E0,2.1559894E0,3.4805685E-2,-1.2341439E-1,1.3854893E0,9.4439936E-1,1.6190017E0,-3.568788E-1,1.730716E-1,-1.1042818E-2,1.02636576E-1,-1.5277329E-3,8.2929716E-2,-4.6690952E-2,3.864851E-2,1.8243204E-1,-7.835078E-3,3.820492E-2,2.201473E-1,9.57218E-2,3.0627114E-1,1.983155E-1,-1.1980696E-1,3.6206895E-1,-2.8843915E-2,-1.00060426E-1,-8.328113E-2,-7.731481E-2,3.5230413E-1,3.1179467E-2,-6.284223E-2,2.6983303E-1,-9.790827E-2,9.272663E-2,-2.4525046E-2,-1.192647E-1,2.116839E-1,1.880618E-1,-7.809921E-2,1.2952138E-1,4.7014398E-3,-7.669005E-2,1.4413753E-1,-9.065559E-2,1.0108098E-1,5.883179E-2,1.6235566E-1,-5.7626594E-2,4.5793407E-2,-7.817809E-2,2.859362E-1,-5.8255824E-3,2.054559E-1,-2.6379576E-2,1.8507269E-1,2.1702163E-1,-9.6259415E-2,-1.1318114E-1,1.7151216E-1,2.3688976E-1,2.7126987E-2,-1.2992832E-2,1.7872843E-1,1.6569196E-1,1.3283123E-1,6.005269E-2,-1.0666635E-1],"categories":[],"categories_nodes":[],"categories_segments":[],"categories_sizes":[],"default_left":[0,0,0,0,0,0,0,0,0,0,0,0,0,0,0,0,0,0,0,0,0,0,0,0,0,0,0,0,0,0,0,0,0,0,0,0,0,0,0,0,0,0,0,0,0,0,0,0,0,0,0,0,0,0,0,0,0,0,0,0,0,0,0,0,0,0,0,0,0,0,0,0,0,0,0,0,0,0,0,0,0,0,0,0,0,0,0,0,0,0,0,0,0,0,0,0,0,0,0,0,0,0,0,0,0,0,0,0,0,0,0,0,0,0,0,0,0,0,0,0,0],"id":6,"left_children":[1,3,5,7,9,11,13,15,17,19,21,23,25,27,29,31,33,35,37,39,41,43,45,47,49,51,53,55,57,59,61,63,65,67,69,71,73,75,77,79,81,83,85,87,89,91,-1,93,95,97,99,101,103,105,107,109,111,-1,113,115,117,119,-1,-1,-1,-1,-1,-1,-1,-1,-1,-1,-1,-1,-1,-1,-1,-1,-1,-1,-1,-1,-1,-1,-1,-1,-1,-1,-1,-1,-1,-1,-1,-1,-1,-1,-1,-1,-1,-1,-1,-1,-1,-1,-1,-1,-1,-1,-1,-1,-1,-1,-1,-1,-1,-1,-1,-1,-1,-1,-1],"loss_changes":[1.2138227E4,5.870502E3,6.298213E2,3.0660322E3,4.3830566E2,4.1900073E2,8.143945E1,2.7570396E3,4.8953772E2,1.6061914E2,1.3898357E2,1.7429492E2,2.3555347E2,5.0884766E1,6.735791E1,4.9557654E2,1.5508752E3,4.1296985E2,9.660504E1,1.0088965E2,1.2730167E2,9.614862E1,9.5840805E1,1.6564932E2,7.868506E1,1.1885479E2,4.0118835E1,2.8088379E1,4.1895237E1,4.2908203E1,6.324105E1,4.6186328E2,1.7108145E2,1.4747153E3,3.122218E2,4.245255E2,3.405857E2,4.410434E1,4.5333725E1,9.648535E1,1.0806279E2,6.486056E1,5.3110283E1,9.744158E1,1.4318564E2,5.5314976E1,0E0,1.4245203E2,5.4470932E1,1.2635556E1,4.3844727E1,1.5921188E2,2.567672E1,3.1681759E1,4.025772E1,2.0520264E1,1.6391459E1,0E0,2.8068676E1,9.520077E1,2.0618652E1,2.5265667E1,0E0,0E0,0E0,0E0,0E0,0E0,0E0,0E0,0E0,0E0,0E0,0E0,0E0,0E0,0E0,0E0,0E0,0E0,0E0,0E0,0E0,0E0,0E0,0E0,0E0,0E0,0E0,0E0,0E0,0E0,0E0,0E0,0E0,0E0,0E0,0E0,0E0,0E0,0E0,0E0,0E0,0E0,0E0,0E0,0E0,0E0,0E0,0E0,0E0,0E0,0E0,0E0,0E0,0E0,0E0,0E0,0E0,0E0,0E0],"parents":[2147483647,0,0,1,1,2,2,3,3,4,4,5,5,6,6,7,7,8,8,9,9,10,10,11,11,12,12,13,13,14,14,15,15,16,16,17,17,18,18,19,19,20,20,21,21,22,22,23,23,24,24,25,25,26,26,27,27,28,28,29,29,30,30,31,31,32,32,33,33,34,34,35,35,36,36,37,37,38,38,39,39,40,40,41,41,42,42,43,43,44,44,45,45,47,47,48,48,49,49,50,50,51,51,52,52,53,53,54,54,55,55,56,56,58,58,59,59,60,60,61,61],"right_children":[2,4,6,8,10,12,14,16,18,20,22,24,26,28,30,32,34,36,38,40,42,44,46,48,50,52,54,56,58,60,62,64,66,68,70,72,74,76,78,80,82,84,86,88,90,92,-1,94,96,98,100,102,104,106,108,110,112,-1,114,116,118,120,-1,-1,-1,-1,-1,-1,-1,-1,-1,-1,-1,-1,-1,-1,-1,-1,-1,-1,-1,-1,-1,-1,-1,-1,-1,-1,-1,-1,-1,-1,-1,-1,-1,-1,-1,-1,-1,-1,-1,-1,-1,-1,-1,-1,-1,-1,-1,-1,-1,-1,-1,-1,-1,-1,-1,-1,-1,-1,-1],"split_conditions":[2E0,1E0,3E0,6.996E0,2.159E2,3E0,3E0,1E0,1.2E1,5.83E2,2E0,1.0383139E0,2E0,2E0,6.34473E1,1.6909075E0,3E0,2E0,4.9E1,9E0,3.995E1,7.74E2,5.17E2,1E0,1.42E2,3.03E2,1.0383139E0,1E0,3E0,1.6860089E-1,4E0,2.232446E6,4.45E2,3E2,1E0,4E0,8E0,1.78E2,2E0,6.85E1,5.45E2,8.478425E-1,1.6374458E2,1.3E1,2E0,1.4495E2,4.623599E-1,1E0,1.0253546E0,1.0795E2,4E0,1.79E2,2.825172E6,3E0,2.22E2,5E0,2E0,-1.2341439E-1,7.2284096E1,3E0,9.315342E-2,5E0,1.730716E-1,-1.1042818E-2,1.02636576E-1,-1.5277329E-3,8.2929716E-2,-4.6690952E-2,3.864851E-2,1.8243204E-1,-7.835078E-3,3.820492E-2,2.201473E-1,9.57218E-2,3.0627114E-1,1.983155E-1,-1.1980696E-1,3.6206895E-1,-2.8843915E-2,-1.00060426E-1,-8.328113E-2,-7.731481E-2,3.5230413E-1,3.1179467E-2,-6.284223E-2,2.6983303E-1,-9.790827E-2,9.272663E-2,-2.4525046E-2,-1.192647E-1,2.116839E-1,1.880618E-1,-7.809921E-2,1.2952138E-1,4.7014398E-3,-7.669005E-2,1.4413753E-1,-9.065559E-2,1.0108098E-1,5.883179E-2,1.6235566E-1,-5.7626594E-2,4.5793407E-2,-7.817809E-2,2.859362E-1,-5.8255824E-3,2.054559E-1,-2.6379576E-2,1.8507269E-1,2.1702163E-1,-9.6259415E-2,-1.1318114E-1,1.7151216E-1,2.3688976E-1,2.7126987E-2,-1.2992832E-2,1.7872843E-1,1.6569196E-1,1.3283123E-1,6.005269E-2,-1.0666635E-1],"split_indices":[124,71,124,181,178,109,150,6,82,8,72,119,122,114,125,110,60,45,13,82,175,176,33,185,9,179,119,132,119,106,143,0,1,1,187,60,4,26,28,1,33,47,35,35,52,1,0,184,144,1,13,9,0,153,26,136,59,0,126,119,133,109,0,0,0,0,0,0,0,0,0,0,0,0,0,0,0,0,0,0,0,0,0,0,0,0,0,0,0,0,0,0,0,0,0,0,0,0,0,0,0,0,0,0,0,0,0,0,0,0,0,0,0,0,0,0,0,0,0,0,0],"split_type":[0,0,0,0,0,0,0,0,0,0,0,0,0,0,0,0,0,0,0,0,0,0,0,0,0,0,0,0,0,0,0,0,0,0,0,0,0,0,0,0,0,0,0,0,0,0,0,0,0,0,0,0,0,0,0,0,0,0,0,0,0,0,0,0,0,0,0,0,0,0,0,0,0,0,0,0,0,0,0,0,0,0,0,0,0,0,0,0,0,0,0,0,0,0,0,0,0,0,0,0,0,0,0,0,0,0,0,0,0,0,0,0,0,0,0,0,0,0,0,0,0],"sum_hessian":[5.965974E4,5.4704527E4,4.9552104E3,3.993277E4,1.4771761E4,2.2703652E3,2.6848452E3,3.2475275E4,7.457493E3,1.4316191E4,4.5556934E2,1.4998462E3,7.70519E2,4.531057E2,2.2317395E3,4.15706E3,2.8318215E4,7.2306465E3,2.2684665E2,1.385066E4,4.6553098E2,4.140065E2,4.156282E1,6.398097E2,8.6003644E2,6.1270966E2,1.578093E2,4.2079297E2,3.2312748E1,2.173147E3,5.8592365E1,2.3217358E3,1.8353245E3,2.7827762E4,4.9045337E2,6.490701E3,7.399456E2,2.1617038E2,1.067627E1,1.382866E4,2.2000471E1,4.4318558E2,2.2345392E1,2.9018472E2,1.2382177E2,3.2985516E1,8.577305E0,5.528192E2,8.6990524E1,1.8254986E1,8.4178143E2,5.944584E2,1.8251335E1,3.6551296E1,1.21258E2,4.1442148E2,6.3715115E0,7.1099205E0,2.5202827E1,1.0387567E2,2.0692715E3,3.523727E1,2.3355095E1,4.409638E2,1.880772E3,1.5526715E3,2.82653E2,2.5629883E4,2.1978787E3,3.789895E2,1.1146386E2,6.3607637E3,1.2993726E2,6.53478E2,8.646758E1,3.581297E0,2.1258908E2,5.4046373E0,5.2716327E0,6.80127E3,7.0273896E3,1.2313949E1,9.6865225E0,9.201793E1,3.5116763E2,1.7948093E1,4.3973E0,1.2016493E2,1.700198E2,1.0992622E2,1.3895545E1,2.180275E1,1.1182767E1,4.371797E2,1.156395E2,7.4835526E1,1.2154999E1,1.4750033E1,3.504952E0,4.4678974E1,7.971025E2,2.8484222E2,3.0961612E2,1.754902E0,1.6496433E1,2.8076694E1,8.474604E0,9.53269E0,1.1172531E2,4.128422E2,1.5792749E0,3.9532564E0,2.418255E0,1.2789115E1,1.2413712E1,4.603986E1,5.7835815E1,1.8263411E3,2.4293034E2,1.5067345E1,2.0169926E1],"tree_param":{"num_deleted":"0","num_feature":"199","num_nodes":"121","size_leaf_vector":"1"}},{"base_weights":[-1.861026E-1,-3.2156911E-1,1.0474743E0,-1.3969788E-1,-8.260855E-1,6.406329E-1,1.3642179E0,-3.0189857E-1,3.3376637E-1,-8.7449765E-1,-1.2888859E-1,1.1015977E0,3.8519776E-1,1.4187958E0,3.796139E-1,4.775689E-1,-4.160328E-1,1.7760429E-1,7.270881E-1,-8.925062E-1,-3.4679025E-1,6.5482455E-1,-3.4791282E-1,2.8341812E-1,1.2336252E0,9.829095E-2,1.4351639E0,1.1886561E0,1.5342512E0,8.4048027E-1,-5.369168E-1,2.3969264E-1,9.153627E-1,-4.618481E-1,1.3442773E0,9.010136E-2,1.3133569E0,8.6006856E-1,-4.378896E-1,-9.0434307E-1,-3.608373E-1,-8.8666356E-1,-4.4788692E-2,1.9515833E-2,1.945029E0,-6.375766E-1,4.790971E-1,7.247708E-1,-5.6454676E-1,1.0865085E0,1.7069633E0,-1.498057E-1,5.902677E-1,1.5095356E0,-1.1616092E-1,6.631768E-2,1.2464143E0,1.5692346E0,1.2637132E0,1.0867784E0,-8.565415E-1,-9.8709327E-1,6.970687E-1,5.9229443E-3,9.354695E-2,7.145442E-2,1.5578155E-1,5.6939027E-3,-5.251626E-2,1.7930952E-1,1.880746E-2,9.042517E-2,3.331447E-3,-6.963381E-2,1.4172639E-1,7.91324E-2,2.2392516E-1,1.15365624E-1,-5.9939105E-2,-9.6715234E-2,-8.548537E-2,-7.9151526E-2,6.541257E-2,5.3131547E-2,-9.7441845E-2,2.2561546E-1,-1.4951124E-2,3.6714338E-2,-1.2491416E-1,2.3792474E-1,-5.9511136E-2,-1.4476295E-2,-7.8551754E-2,5.407261E-3,2.207363E-1,1.0641793E-1,-3.9259814E-2,-9.5224224E-2,7.698161E-2,6.8842284E-2,1.3726015E-1,4.4559106E-2,1.7449775E-1,-2.967217E-2,9.9496976E-2,1.4323816E-2,1.16449654E-1,1.5786563E-1,-6.402958E-2,-5.958866E-2,1.6194884E-1,7.478614E-2,1.3570116E-1,1.57242E-1,-9.0052225E-2,-5.0594676E-2,1.3738573E-1,-1.10914014E-1,1.2784551E-1,-1.131807E-1,1.2189057E-1,1.3333301E-1,-1.0955673E-1,1.343868E-1,-9.984132E-2],"categories":[],"categories_nodes":[],"categories_segments":[],"categories_sizes":[],"default_left":[0,0,0,0,0,0,0,0,0,0,0,0,0,0,0,0,0,0,0,0,0,0,0,0,0,0,0,0,0,0,0,0,0,0,0,0,0,0,0,0,0,0,0,0,0,0,0,0,0,0,0,0,0,0,0,0,0,0,0,0,0,0,0,0,0,0,0,0,0,0,0,0,0,0,0,0,0,0,0,0,0,0,0,0,0,0,0,0,0,0,0,0,0,0,0,0,0,0,0,0,0,0,0,0,0,0,0,0,0,0,0,0,0,0,0,0,0,0,0,0,0,0,0,0,0],"id":7,"left_children":[1,3,5,7,9,11,13,15,17,19,21,23,25,27,29,31,33,35,37,39,41,43,45,47,49,51,53,55,57,59,61,63,65,67,69,71,73,75,77,79,81,83,85,87,89,91,93,95,97,99,101,103,105,107,-1,109,111,113,115,117,119,121,123,-1,-1,-1,-1,-1,-1,-1,-1,-1,-1,-1,-1,-1,-1,-1,-1,-1,-1,-1,-1,-1,-1,-1,-1,-1,-1,-1,-1,-1,-1,-1,-1,-1,-1,-1,-1,-1,-1,-1,-1,-1,-1,-1,-1,-1,-1,-1,-1,-1,-1,-1,-1,-1,-1,-1,-1,-1,-1,-1,-1,-1,-1],"loss_changes":[9.692482E3,4.7951924E3,7.387095E2,2.9501987E3,4.6727246E2,2.9561316E2,1.7282129E2,2.5457236E3,6.0196643E2,1.2273926E2,1.5476164E2,9.642822E1,4.8765607E2,7.938379E1,7.259593E1,3.8041803E2,2.013541E3,6.9734814E2,4.3191357E2,7.84668E1,6.9892365E1,1.6143068E2,1.690198E2,4.7482895E1,5.1843384E1,1.5544878E2,6.885364E1,6.639221E1,1.7246582E1,4.8596527E1,3.2773182E1,2.974759E2,1.6485791E2,7.990796E2,3.283396E2,3.0127588E2,1.058042E2,2.353042E2,7.421773E1,3.724121E1,1.2043655E2,1.9657112E1,6.686856E1,5.9116486E1,7.309317E1,3.794548E1,1.3449603E2,3.1956581E1,2.3298231E1,6.636774E1,7.9057617E0,1.4273889E2,1.09417404E2,5.126709E1,0E0,5.3672382E1,5.2757202E1,1.5537598E1,4.7043243E1,4.352009E1,9.956344E0,1.2216896E1,1.8915071E1,0E0,0E0,0E0,0E0,0E0,0E0,0E0,0E0,0E0,0E0,0E0,0E0,0E0,0E0,0E0,0E0,0E0,0E0,0E0,0E0,0E0,0E0,0E0,0E0,0E0,0E0,0E0,0E0,0E0,0E0,0E0,0E0,0E0,0E0,0E0,0E0,0E0,0E0,0E0,0E0,0E0,0E0,0E0,0E0,0E0,0E0,0E0,0E0,0E0,0E0,0E0,0E0,0E0,0E0,0E0,0E0,0E0,0E0,0E0,0E0,0E0,0E0],"parents":[2147483647,0,0,1,1,2,2,3,3,4,4,5,5,6,6,7,7,8,8,9,9,10,10,11,11,12,12,13,13,14,14,15,15,16,16,17,17,18,18,19,19,20,20,21,21,22,22,23,23,24,24,25,25,26,26,27,27,28,28,29,29,30,30,31,31,32,32,33,33,34,34,35,35,36,36,37,37,38,38,39,39,40,40,41,41,42,42,43,43,44,44,45,45,46,46,47,47,48,48,49,49,50,50,51,51,52,52,53,53,55,55,56,56,57,57,58,58,59,59,60,60,61,61,62,62],"right_children":[2,4,6,8,10,12,14,16,18,20,22,24,26,28,30,32,34,36,38,40,42,44,46,48,50,52,54,56,58,60,62,64,66,68,70,72,74,76,78,80,82,84,86,88,90,92,94,96,98,100,102,104,106,108,-1,110,112,114,116,118,120,122,124,-1,-1,-1,-1,-1,-1,-1,-1,-1,-1,-1,-1,-1,-1,-1,-1,-1,-1,-1,-1,-1,-1,-1,-1,-1,-1,-1,-1,-1,-1,-1,-1,-1,-1,-1,-1,-1,-1,-1,-1,-1,-1,-1,-1,-1,-1,-1,-1,-1,-1,-1,-1,-1,-1,-1,-1,-1,-1,-1,-1,-1,-1],"split_conditions":[2E0,1E0,3E0,2E0,1.05E2,1E0,2E0,1E0,1.5995E2,5.83E2,3E0,2.335393E6,5E0,4E0,3.41E2,1E0,7E0,3E0,1.58E2,1.19E2,4.2335964E1,3E0,2.71E2,1.882754E6,1.0253546E0,2E0,2E0,1.6E1,1E0,4.72484E1,8.1567E1,1.23226E5,1.1207792E0,2E0,2.9E1,1.09E2,3E0,1E0,1.43E2,2.25E2,5.2E1,1.736E3,4.0643618E-1,7.94E2,3E0,8.478425E-1,5.34E2,2E0,2E0,1.63E2,-6E1,1.5E2,1.0347914E0,3.77E2,-1.1616092E-1,3E0,2.570096E6,7.26E2,7.942312E-1,1.48E2,3.17E2,2.059E3,3E0,5.9229443E-3,9.354695E-2,7.145442E-2,1.5578155E-1,5.6939027E-3,-5.251626E-2,1.7930952E-1,1.880746E-2,9.042517E-2,3.331447E-3,-6.963381E-2,1.4172639E-1,7.91324E-2,2.2392516E-1,1.15365624E-1,-5.9939105E-2,-9.6715234E-2,-8.548537E-2,-7.9151526E-2,6.541257E-2,5.3131547E-2,-9.7441845E-2,2.2561546E-1,-1.4951124E-2,3.6714338E-2,-1.2491416E-1,2.3792474E-1,-5.9511136E-2,-1.4476295E-2,-7.8551754E-2,5.407261E-3,2.207363E-1,1.0641793E-1,-3.9259814E-2,-9.5224224E-2,7.698161E-2,6.8842284E-2,1.3726015E-1,4.4559106E-2,1.7449775E-1,-2.967217E-2,9.9496976E-2,1.4323816E-2,1.16449654E-1,1.5786563E-1,-6.402958E-2,-5.958866E-2,1.6194884E-1,7.478614E-2,1.3570116E-1,1.57242E-1,-9.0052225E-2,-5.0594676E-2,1.3738573E-1,-1.10914014E-1,1.2784551E-1,-1.131807E-1,1.2189057E-1,1.3333301E-1,-1.0955673E-1,1.343868E-1,-9.984132E-2],"split_indices":[150,71,150,161,103,7,134,7,180,8,33,0,5,150,25,5,5,5,34,181,32,4,178,0,144,119,134,13,108,126,158,19,60,32,6,10,13,189,11,10,29,2,54,103,29,47,33,160,73,9,21,128,49,31,0,122,0,181,145,9,25,2,149,0,0,0,0,0,0,0,0,0,0,0,0,0,0,0,0,0,0,0,0,0,0,0,0,0,0,0,0,0,0,0,0,0,0,0,0,0,0,0,0,0,0,0,0,0,0,0,0,0,0,0,0,0,0,0,0,0,0,0,0,0,0],"split_type":[0,0,0,0,0,0,0,0,0,0,0,0,0,0,0,0,0,0,0,0,0,0,0,0,0,0,0,0,0,0,0,0,0,0,0,0,0,0,0,0,0,0,0,0,0,0,0,0,0,0,0,0,0,0,0,0,0,0,0,0,0,0,0,0,0,0,0,0,0,0,0,0,0,0,0,0,0,0,0,0,0,0,0,0,0,0,0,0,0,0,0,0,0,0,0,0,0,0,0,0,0,0,0,0,0,0,0,0,0,0,0,0,0,0,0,0,0,0,0,0,0,0,0,0,0],"sum_hessian":[5.7998168E4,5.225993E4,5.738239E3,3.841362E4,1.3846307E4,2.5131914E3,3.225047E3,2.8612004E4,9.801617E3,1.2947034E4,8.992731E2,8.949071E2,1.6182844E3,3.0552495E3,1.6979776E2,3.654028E3,2.4957977E4,7.0170586E3,2.7845588E3,1.2519115E4,4.2791913E2,1.959903E2,7.032828E2,1.2478098E2,7.701261E2,1.2718427E3,3.464417E2,1.024462E3,2.0307875E3,1.1303996E2,5.67578E1,2.3685945E3,1.2854335E3,2.4325596E4,6.323808E2,6.5161104E3,5.009479E2,2.4995059E3,2.8505322E2,1.2245777E4,2.73337E2,1.5281082E2,2.751083E2,1.3200496E2,6.3985344E1,5.210217E2,1.8226105E2,8.216214E1,4.2618847E1,5.9003485E2,1.8009126E2,8.459421E2,4.259006E2,3.372029E2,9.238823E0,5.0246002E1,9.74216E2,1.7940039E3,2.3678351E2,9.90272E1,1.4012763E1,4.1733036E1,1.5024764E1,1.8816398E3,4.8695465E2,9.8092664E2,3.0450687E2,2.6458755E3,2.1679719E4,4.5514896E2,1.7723183E2,4.238907E2,6.0922197E3,2.434684E1,4.7660107E2,2.3823335E3,1.17172195E2,2.5694887E1,2.5935834E2,5.3884766E3,6.8573013E3,1.9206041E2,8.1276596E1,8.611306E0,1.4419951E2,1.10815935E1,2.6402673E2,1.0417134E2,2.7833609E1,5.469839E1,9.286952E0,1.2075314E2,4.002686E2,1.471134E2,3.5147636E1,6.3056034E1,1.9106104E1,3.3245754E1,9.373092E0,2.4815056E2,3.4188428E2,5.640828E0,1.7445044E2,7.503818E2,9.5560265E1,2.401761E2,1.857245E2,3.269564E2,1.0246515E1,3.565893E1,1.4587072E1,1.7828784E2,7.9592816E2,1.7920559E3,1.9480181E0,1.3663378E1,2.2312013E2,7.5656686E0,9.146153E1,1.27733135E1,1.2394497E0,1.3595023E0,4.0373535E1,1.102593E1,3.9988332E0],"tree_param":{"num_deleted":"0","num_feature":"199","num_nodes":"125","size_leaf_vector":"1"}},{"base_weights":[-1.6510762E-1,-2.963084E-1,9.7195345E-1,-1.2798241E-1,-7.858326E-1,1.1764524E0,3.051089E-1,-1.7441168E-1,1.2227379E0,-8.3731854E-1,-8.234765E-2,1.2859842E0,1.4366406E-1,-3.936896E-1,7.805346E-1,-2.7339995E-1,4.285494E-1,1.5091535E0,5.042601E-1,-9.429367E-1,-7.5353855E-1,6.0629773E-1,-4.1087678E-1,9.1200125E-1,1.4315361E0,-5.10092E-1,1.4359967E0,-5.302227E-1,3.431234E0,1.054616E0,-1.964534E-1,-3.59432E-1,3.242282E-1,-4.002136E-3,6.6275936E-1,2.5016227E0,1.393911E0,6.455893E-1,-1.1493497E0,-9.477291E-1,8.2502854E-1,-7.5736237E-1,2.4782553E0,-4.6499033E-2,1.8129826E0,-6.2103486E-1,7.0340395E-1,-2.6097378E-1,1.1257683E0,1.482518E0,5.063413E-1,-1.1105114E0,-2.5347963E-2,1.6085862E0,3.269718E-1,-6.397092E-1,1.2666191E0,4.3011642E-1,-9.7308084E-2,-1.1808302E0,1.1841706E0,-3.4585583E-1,2.3312692E-1,-4.540349E-2,1.8737657E-2,2.4255373E-2,1.9622126E-1,-6.114958E-2,2.0559995E-2,4.0062178E-2,1.1252405E-1,-9.600622E-2,2.6150772E-1,7.345673E-2,1.4657572E-1,3.1054223E-2,1.2438025E-1,1.5120379E-2,-1.2965596E-1,-9.5329195E-2,4.195836E-3,-3.1502552E-2,3.83807E-1,-7.821787E-2,-2.754112E-2,-7.824226E-2,3.392772E-1,-6.0434945E-2,7.9458915E-2,-4.737967E-3,2.2518507E-1,-7.330545E-2,1.6247459E-1,1.7815949E-1,-1.1519245E-1,-4.7173377E-2,1.2731901E-1,1.293881E-1,2.584298E-2,3.6540326E-2,1.5197052E-1,1.6070103E-2,1.4910625E-1,2.6895162E-1,-1.18756175E-1,-3.1981118E-2,1.1168641E-1,9.666742E-2,1.7120534E-1,-8.1303254E-2,1.2661278E-1,-2.3476038E-2,-1.1370869E-1,2.3504548E-1,-4.4693716E-2,-1.3028108E-1,1.0280843E-1,4.2967986E-2,1.426885E-1,8.183802E-3,-1.2012241E-1],"categories":[],"categories_nodes":[],"categories_segments":[],"categories_sizes":[],"default_left":[0,0,0,0,0,0,0,0,0,0,0,0,0,0,0,0,0,0,0,0,0,0,0,0,0,0,0,0,0,0,0,0,0,0,0,0,0,0,0,0,0,0,0,0,0,0,0,0,0,0,0,0,0,0,0,0,0,0,0,0,0,0,0,0,0,0,0,0,0,0,0,0,0,0,0,0,0,0,0,0,0,0,0,0,0,0,0,0,0,0,0,0,0,0,0,0,0,0,0,0,0,0,0,0,0,0,0,0,0,0,0,0,0,0,0,0,0,0,0,0,0],"id":8,"left_children":[1,3,5,7,9,11,13,15,17,19,21,23,25,27,29,31,33,35,37,39,41,43,45,47,49,51,53,55,57,59,61,63,65,67,69,71,73,75,77,79,81,83,85,87,89,91,93,95,97,99,101,103,105,107,109,111,113,-1,-1,115,117,119,-1,-1,-1,-1,-1,-1,-1,-1,-1,-1,-1,-1,-1,-1,-1,-1,-1,-1,-1,-1,-1,-1,-1,-1,-1,-1,-1,-1,-1,-1,-1,-1,-1,-1,-1,-1,-1,-1,-1,-1,-1,-1,-1,-1,-1,-1,-1,-1,-1,-1,-1,-1,-1,-1,-1,-1,-1,-1,-1],"loss_changes":[8.43898E3,4.1787974E3,7.9766504E2,2.3669758E3,4.6993066E2,5.064004E2,4.5704086E2,2.1778438E3,2.5734595E2,1.0628223E2,2.0070847E2,2.1907812E2,3.644636E2,2.9285013E2,2.1937445E2,1.6115547E3,5.212986E2,9.9023926E1,8.464004E1,4.606543E1,8.5263916E1,2.2583005E2,1.4105096E2,2.8539392E2,1.3663379E2,8.33954E1,2.7206268E1,1.0683693E2,7.828905E1,1.8655493E2,6.884076E1,1.4173799E3,5.2723535E2,2.3040353E2,4.0424854E2,3.8637756E1,3.70708E1,6.602965E1,5.6766167E0,2.9388184E1,5.267604E1,8.040283E1,2.7131702E1,8.8196434E1,8.2269135E1,1.2841498E2,1.935885E2,5.7535683E1,1.3992615E2,1.1410205E2,5.20512E1,4.0675842E1,5.40421E1,6.6551514E0,2.3262836E1,1.02182785E2,5.9160698E1,0E0,0E0,1.0910851E1,1.1014172E2,6.2645313E1,0E0,0E0,0E0,0E0,0E0,0E0,0E0,0E0,0E0,0E0,0E0,0E0,0E0,0E0,0E0,0E0,0E0,0E0,0E0,0E0,0E0,0E0,0E0,0E0,0E0,0E0,0E0,0E0,0E0,0E0,0E0,0E0,0E0,0E0,0E0,0E0,0E0,0E0,0E0,0E0,0E0,0E0,0E0,0E0,0E0,0E0,0E0,0E0,0E0,0E0,0E0,0E0,0E0,0E0,0E0,0E0,0E0,0E0,0E0],"parents":[2147483647,0,0,1,1,2,2,3,3,4,4,5,5,6,6,7,7,8,8,9,9,10,10,11,11,12,12,13,13,14,14,15,15,16,16,17,17,18,18,19,19,20,20,21,21,22,22,23,23,24,24,25,25,26,26,27,27,28,28,29,29,30,30,31,31,32,32,33,33,34,34,35,35,36,36,37,37,38,38,39,39,40,40,41,41,42,42,43,43,44,44,45,45,46,46,47,47,48,48,49,49,50,50,51,51,52,52,53,53,54,54,55,55,56,56,59,59,60,60,61,61],"right_children":[2,4,6,8,10,12,14,16,18,20,22,24,26,28,30,32,34,36,38,40,42,44,46,48,50,52,54,56,58,60,62,64,66,68,70,72,74,76,78,80,82,84,86,88,90,92,94,96,98,100,102,104,106,108,110,112,114,-1,-1,116,118,120,-1,-1,-1,-1,-1,-1,-1,-1,-1,-1,-1,-1,-1,-1,-1,-1,-1,-1,-1,-1,-1,-1,-1,-1,-1,-1,-1,-1,-1,-1,-1,-1,-1,-1,-1,-1,-1,-1,-1,-1,-1,-1,-1,-1,-1,-1,-1,-1,-1,-1,-1,-1,-1,-1,-1,-1,-1,-1,-1],"split_conditions":[2E0,1E0,1E0,2E0,1.05E2,2.77E2,2E0,3E0,1E0,5.954E1,1.3E1,3E0,8E0,1.7933E4,1.4649E4,2.5E2,6.795E1,1.3435099E0,5.97575E1,2.65E2,9E0,3E0,5.34E2,8.171707E-1,4.98E2,1E0,2E0,5.20216E1,1.8018E4,1.44E2,2.5E1,1.97E2,1E0,6.1998194E-1,1E0,1.595E1,9E0,5.49E2,1.76E2,1.8301E4,1.2E2,5.83E2,1.7E1,1.0040246E7,1.06E2,2E0,3.33E2,1.4307975E7,1.5236E4,2E0,1.1623996E0,1.142E3,3E0,1.3E1,1.287121E6,2E0,7.224E3,4.3011642E-1,-9.7308084E-2,2.9275E2,4.999E3,7.2E1,2.3312692E-1,-4.540349E-2,1.8737657E-2,2.4255373E-2,1.9622126E-1,-6.114958E-2,2.0559995E-2,4.0062178E-2,1.1252405E-1,-9.600622E-2,2.6150772E-1,7.345673E-2,1.4657572E-1,3.1054223E-2,1.2438025E-1,1.5120379E-2,-1.2965596E-1,-9.5329195E-2,4.195836E-3,-3.1502552E-2,3.83807E-1,-7.821787E-2,-2.754112E-2,-7.824226E-2,3.392772E-1,-6.0434945E-2,7.9458915E-2,-4.737967E-3,2.2518507E-1,-7.330545E-2,1.6247459E-1,1.7815949E-1,-1.1519245E-1,-4.7173377E-2,1.2731901E-1,1.293881E-1,2.584298E-2,3.6540326E-2,1.5197052E-1,1.6070103E-2,1.4910625E-1,2.6895162E-1,-1.18756175E-1,-3.1981118E-2,1.1168641E-1,9.666742E-2,1.7120534E-1,-8.1303254E-2,1.2661278E-1,-2.3476038E-2,-1.1370869E-1,2.3504548E-1,-4.4693716E-2,-1.3028108E-1,1.0280843E-1,4.2967986E-2,1.426885E-1,8.183802E-3,-1.2012241E-1],"split_indices":[5,71,163,119,103,31,161,161,66,1,35,5,5,2,2,1,179,150,128,181,82,4,33,160,5,160,33,182,2,9,161,24,184,63,193,1,13,26,25,2,28,8,13,0,1,52,8,0,2,13,58,2,57,5,0,163,2,0,0,176,2,181,0,0,0,0,0,0,0,0,0,0,0,0,0,0,0,0,0,0,0,0,0,0,0,0,0,0,0,0,0,0,0,0,0,0,0,0,0,0,0,0,0,0,0,0,0,0,0,0,0,0,0,0,0,0,0,0,0,0,0],"split_type":[0,0,0,0,0,0,0,0,0,0,0,0,0,0,0,0,0,0,0,0,0,0,0,0,0,0,0,0,0,0,0,0,0,0,0,0,0,0,0,0,0,0,0,0,0,0,0,0,0,0,0,0,0,0,0,0,0,0,0,0,0,0,0,0,0,0,0,0,0,0,0,0,0,0,0,0,0,0,0,0,0,0,0,0,0,0,0,0,0,0,0,0,0,0,0,0,0,0,0,0,0,0,0,0,0,0,0,0,0,0,0,0,0,0,0,0,0,0,0,0,0],"sum_hessian":[5.6564938E4,5.0713996E4,5.8509395E3,3.77386E4,1.2975396E4,4.477175E3,1.3737644E3,3.6485336E4,1.2532657E3,1.209035E4,8.85047E2,4.0476577E3,4.2951703E2,5.5628613E2,8.174782E2,3.1340676E4,5.14466E3,8.9527203E2,3.579937E2,5.343613E3,6.746737E3,2.8558124E2,5.9946576E2,1.1360198E3,2.9116382E3,2.856299E2,1.4388713E2,5.3794525E2,1.8340921E1,6.38325E2,1.7915323E2,2.7397102E4,3.9435747E3,1.8074841E3,3.3371758E3,9.0986694E1,8.0428534E2,3.3036774E2,2.762598E1,5.32963E3,1.398297E1,6.7395283E3,7.208443E0,1.8594794E2,9.963332E1,5.047167E2,9.4749054E1,1.7508405E2,9.609357E2,2.759004E3,1.5263419E2,1.27014626E2,1.5861528E2,1.2412069E2,1.976645E1,5.076563E2,3.0288908E1,1.5335341E1,3.005581E0,3.4522923E1,6.0380206E2,1.6997021E2,9.183007E0,2.33564E4,4.0407017E3,3.7573696E3,1.862049E2,4.6316547E2,1.3443186E3,2.1311123E3,1.2060635E3,2.6505876E0,8.8336105E1,8.013135E1,7.24154E2,2.1273714E2,1.17630615E2,2.8062778E0,2.4819702E1,5.299877E3,2.9752708E1,1.0794186E1,3.1887844E0,6.408902E3,3.3062656E2,1.6105444E0,5.597899E0,1.1196728E2,7.398065E1,1.9187883E1,8.0445435E1,4.813791E2,2.3337626E1,5.9949955E1,3.4799103E1,1.5454546E2,2.0538593E1,8.045092E2,1.5642648E2,8.923358E1,2.6697703E3,1.13839386E2,3.8794792E1,1.8503793E0,1.25164246E2,1.2667768E2,3.1937601E1,1.8665089E1,1.054556E2,8.98916E0,1.0777291E1,2.8064017E2,2.2701613E2,1.8325943E1,1.1962965E1,3.3105003E1,1.4179175E0,1.4763644E2,4.5616562E2,1.139155E2,5.605472E1],"tree_param":{"num_deleted":"0","num_feature":"199","num_nodes":"121","size_leaf_vector":"1"}},{"base_weights":[-1.5469015E-1,-2.641304E-1,1.0164787E0,-1.03422664E-1,-7.664757E-1,6.6887945E-1,1.3321874E0,-2.7972752E-1,2.3892125E-1,-8.2214016E-1,-1.8629996E-1,8.3402365E-1,-2.3458023E-1,1.4117638E0,1.0203853E0,-4.0307403E-1,2.3987651E-1,-4.195243E-1,4.859773E-1,-8.403232E-1,-3.3410743E-1,-7.0617074E-1,1.1054449E-1,-2.2580495E-1,9.2864144E-1,-4.470362E-1,7.319353E-1,1.7451233E0,1.3520142E0,-1.4185467E-1,1.0963758E0,-4.3199548E-1,1.0260335E0,1.8946558E0,2.0835066E-1,-8.73647E-1,1.3319622E-2,5.7390296E-1,-5.6872E-1,-8.897885E-1,-6.9633627E-1,-5.977835E-1,4.978526E-1,-8.2074475E-1,1.434561E0,-2.7417991E-2,1.2612106E0,5.246158E-1,-8.630761E-1,6.54168E-1,1.1467005E0,-5.471352E-1,1.414367E0,9.2264086E-1,-1.22866966E-1,1.625325E0,2.3066971E0,1.3601041E0,-9.342434E-1,-8.9723176E-1,1.1679666E0,-4.4091225E-2,3.297877E-1,5.6044064E-3,1.15600005E-1,2.7706325E-1,-8.019694E-2,-1.7862529E-2,3.6521163E-2,-9.568382E-2,-4.1011874E-2,-1.4857347E-2,1.3929154E-1,2.00663E-1,5.243438E-2,-7.238065E-2,1.1630454E-1,-8.982314E-2,-9.225807E-3,1.8874018E-1,-7.057688E-2,-2.7457122E-2,-1.07687406E-1,1.8793784E-1,-2.7125148E-2,-8.462485E-2,3.107614E-1,2.8537193E-1,-1.0232959E-1,5.8099728E-2,-4.6623986E-2,1.9994146E-1,-6.782417E-2,5.7038646E-3,1.463785E-1,3.924064E-2,-1.0123056E-1,7.892188E-2,-9.078625E-2,9.2359915E-2,1.4836437E-1,-7.149867E-2,5.417596E-2,-9.582914E-2,1.9161001E-1,1.08400404E-1,-1.1085584E-1,-1.2082531E-2,1.677023E-1,2.4080348E-1,1.2750158E-1,8.315206E-2,1.3846587E-1,-1.4494924E-1,8.057869E-2,-1.5277797E-1,1.2616561E-1,1.2093242E-1,-1.01927914E-1],"categories":[],"categories_nodes":[],"categories_segments":[],"categories_sizes":[],"default_left":[0,0,0,0,0,0,0,0,0,0,0,0,0,0,0,0,0,0,0,0,0,0,0,0,0,0,0,0,0,0,0,0,0,0,0,0,0,0,0,0,0,0,0,0,0,0,0,0,0,0,0,0,0,0,0,0,0,0,0,0,0,0,0,0,0,0,0,0,0,0,0,0,0,0,0,0,0,0,0,0,0,0,0,0,0,0,0,0,0,0,0,0,0,0,0,0,0,0,0,0,0,0,0,0,0,0,0,0,0,0,0,0,0,0,0,0,0,0,0],"id":9,"left_children":[1,3,5,7,9,11,13,15,17,19,21,23,25,27,29,31,33,35,37,39,41,43,45,47,49,51,53,55,57,-1,59,61,63,65,67,69,71,73,75,77,79,81,83,85,87,89,91,93,95,97,99,101,103,105,-1,107,109,111,113,115,117,-1,-1,-1,-1,-1,-1,-1,-1,-1,-1,-1,-1,-1,-1,-1,-1,-1,-1,-1,-1,-1,-1,-1,-1,-1,-1,-1,-1,-1,-1,-1,-1,-1,-1,-1,-1,-1,-1,-1,-1,-1,-1,-1,-1,-1,-1,-1,-1,-1,-1,-1,-1,-1,-1,-1,-1,-1,-1],"loss_changes":[7.0826704E3,4.0796638E3,5.173462E2,2.311002E3,3.954087E2,3.35852E2,5.99375E1,1.6198815E3,2.117517E3,9.889209E1,1.6575212E2,1.909635E2,7.1879074E1,3.6842285E1,9.544116E1,8.44645E2,2.5257596E2,6.981575E2,8.7806494E2,7.6114746E1,8.872241E1,9.691603E1,1.0865573E2,7.539521E1,1.0378198E2,5.4114902E1,2.4753452E1,1.614447E1,3.2222168E1,0E0,7.124365E1,6.673042E2,5.1048218E1,2.1607477E2,2.8897937E2,6.644556E1,4.0657816E2,6.193296E2,1.9658955E2,5.388672E1,6.858142E1,4.7170776E1,1.041636E2,3.981375E1,7.3357864E1,1.6365474E2,1.0626655E2,3.1792534E1,1.6345348E1,1.6432535E2,7.1694214E1,5.0173157E1,1.9559872E1,2.0258678E1,0E0,2.250885E1,2.1158447E0,2.049707E1,6.9896193E0,2.5906467E1,4.4220337E1,0E0,0E0,0E0,0E0,0E0,0E0,0E0,0E0,0E0,0E0,0E0,0E0,0E0,0E0,0E0,0E0,0E0,0E0,0E0,0E0,0E0,0E0,0E0,0E0,0E0,0E0,0E0,0E0,0E0,0E0,0E0,0E0,0E0,0E0,0E0,0E0,0E0,0E0,0E0,0E0,0E0,0E0,0E0,0E0,0E0,0E0,0E0,0E0,0E0,0E0,0E0,0E0,0E0,0E0,0E0,0E0,0E0,0E0],"parents":[2147483647,0,0,1,1,2,2,3,3,4,4,5,5,6,6,7,7,8,8,9,9,10,10,11,11,12,12,13,13,14,14,15,15,16,16,17,17,18,18,19,19,20,20,21,21,22,22,23,23,24,24,25,25,26,26,27,27,28,28,30,30,31,31,32,32,33,33,34,34,35,35,36,36,37,37,38,38,39,39,40,40,41,41,42,42,43,43,44,44,45,45,46,46,47,47,48,48,49,49,50,50,51,51,52,52,53,53,55,55,56,56,57,57,58,58,59,59,60,60],"right_children":[2,4,6,8,10,12,14,16,18,20,22,24,26,28,30,32,34,36,38,40,42,44,46,48,50,52,54,56,58,-1,60,62,64,66,68,70,72,74,76,78,80,82,84,86,88,90,92,94,96,98,100,102,104,106,-1,108,110,112,114,116,118,-1,-1,-1,-1,-1,-1,-1,-1,-1,-1,-1,-1,-1,-1,-1,-1,-1,-1,-1,-1,-1,-1,-1,-1,-1,-1,-1,-1,-1,-1,-1,-1,-1,-1,-1,-1,-1,-1,-1,-1,-1,-1,-1,-1,-1,-1,-1,-1,-1,-1,-1,-1,-1,-1,-1,-1,-1,-1],"split_conditions":[2E0,1E0,3E0,1E0,1.05E2,4E0,1.2826E1,6.996E0,1.1252669E0,5.83E2,1.0795E2,1.6E1,1.0253546E0,2E0,1.2E2,2E0,1.23E2,2.40291E6,2.03E2,1.265E2,1.0222857E0,9E0,1E0,1E0,1.0383139E0,1.5270073E7,5.3E1,3E0,4.52E2,-1.4185467E-1,2E0,5E0,3.15E2,8.478425E-1,2.51E2,4E0,2.65E2,-4.8E1,1.3E1,1.37E2,1.46E2,1.8E1,6.053E3,2.507E3,5.9916574E-1,6E0,1.82E2,1.149845E0,1.77E2,3.6E1,6.1998194E-1,4E0,1.1030113E0,6.6E1,-1.22866966E-1,1.6860089E-1,1.4654757E0,1.6860089E-1,9.832641E6,7E0,1E0,-4.4091225E-2,3.297877E-1,5.6044064E-3,1.15600005E-1,2.7706325E-1,-8.019694E-2,-1.7862529E-2,3.6521163E-2,-9.568382E-2,-4.1011874E-2,-1.4857347E-2,1.3929154E-1,2.00663E-1,5.243438E-2,-7.238065E-2,1.1630454E-1,-8.982314E-2,-9.225807E-3,1.8874018E-1,-7.057688E-2,-2.7457122E-2,-1.07687406E-1,1.8793784E-1,-2.7125148E-2,-8.462485E-2,3.107614E-1,2.8537193E-1,-1.0232959E-1,5.8099728E-2,-4.6623986E-2,1.9994146E-1,-6.782417E-2,5.7038646E-3,1.463785E-1,3.924064E-2,-1.0123056E-1,7.892188E-2,-9.078625E-2,9.2359915E-2,1.4836437E-1,-7.149867E-2,5.417596E-2,-9.582914E-2,1.9161001E-1,1.08400404E-1,-1.1085584E-1,-1.2082531E-2,1.677023E-1,2.4080348E-1,1.2750158E-1,8.315206E-2,1.3846587E-1,-1.4494924E-1,8.057869E-2,-1.5277797E-1,1.2616561E-1,1.2093242E-1,-1.01927914E-1],"split_indices":[124,71,124,193,178,109,128,181,105,8,1,13,144,149,9,149,11,0,29,1,61,82,15,6,119,0,23,122,181,0,13,153,26,47,11,20,1,18,5,181,9,29,2,28,45,29,29,120,11,13,63,6,168,178,0,106,137,106,0,5,81,0,0,0,0,0,0,0,0,0,0,0,0,0,0,0,0,0,0,0,0,0,0,0,0,0,0,0,0,0,0,0,0,0,0,0,0,0,0,0,0,0,0,0,0,0,0,0,0,0,0,0,0,0,0,0,0,0,0],"split_type":[0,0,0,0,0,0,0,0,0,0,0,0,0,0,0,0,0,0,0,0,0,0,0,0,0,0,0,0,0,0,0,0,0,0,0,0,0,0,0,0,0,0,0,0,0,0,0,0,0,0,0,0,0,0,0,0,0,0,0,0,0,0,0,0,0,0,0,0,0,0,0,0,0,0,0,0,0,0,0,0,0,0,0,0,0,0,0,0,0,0,0,0,0,0,0,0,0,0,0,0,0,0,0,0,0,0,0,0,0,0,0,0,0,0,0,0,0,0,0],"sum_hessian":[5.5255574E4,5.0534164E4,4.7214077E3,3.828684E4,1.2247325E4,2.2486904E3,2.4727173E3,2.5272072E4,1.3014767E4,1.1174756E4,1.0725695E3,1.9012382E3,3.4745218E2,1.9671454E3,5.0557187E2,2.0423947E4,4.848126E3,3.550744E3,9.464023E3,1.0772667E4,4.0208896E2,3.893364E2,6.832331E2,1.5571071E2,1.7455275E3,2.8528033E2,6.2171825E1,2.94704E2,1.6724414E3,1.4742451E1,4.908294E2,2.00195E4,4.0444568E2,8.953193E1,4.758594E3,1.732283E3,1.8184609E3,8.736181E3,7.2784265E2,8.014264E3,2.7584026E3,3.0553586E2,9.655311E1,3.701426E2,1.9193777E1,6.109568E2,7.2276276E1,7.158836E1,8.4122345E1,7.7456903E2,9.7095844E2,2.71392E2,1.3888335E1,5.714301E1,5.028817E0,2.4609895E2,4.860506E1,1.666948E3,5.493386E0,1.6614964E1,4.7421445E2,1.9972635E4,4.6865555E1,4.7956844E1,3.5648883E2,6.755862E1,2.197331E1,1.3724995E3,3.3860947E3,1.4677891E3,2.6449393E2,1.6282778E3,1.9018317E2,2.907676E2,8.445413E3,6.685531E2,5.928954E1,7.9301875E3,8.407699E1,9.309273E0,2.7490933E3,1.8338835E2,1.2214751E2,3.401288E1,6.254023E1,3.685346E2,1.6080232E0,1.2065904E1,7.1278725E0,2.5587234E2,3.5508444E2,5.2328014E1,1.9948265E1,4.8501846E1,2.3086521E1,8.763623E0,7.535873E1,7.1338556E2,6.1183437E1,5.8641455E2,3.8454388E2,2.3544232E2,3.5949696E1,2.2654116E0,1.1622924E1,5.3369534E1,3.7734756E0,7.038239E0,2.3906071E2,4.3043045E1,5.5620146E0,7.554549E1,1.5914025E3,4.3671737E0,1.1262125E0,1.3085424E1,3.529539E0,4.6585294E2,8.3615055E0],"tree_param":{"num_deleted":"0","num_feature":"199","num_nodes":"119","size_leaf_vector":"1"}},{"base_weights":[-1.402194E-1,-2.5828522E-1,8.4217745E-1,4.3751088E-1,-3.6353442E-1,1.022925E0,2.6048428E-1,2.5965816E-1,1.0634094E0,-5.1985234E-1,1.07835226E-1,7.025383E-1,1.259762E0,-3.6155972E-1,6.533961E-1,7.189929E-1,1.20028615E-1,9.026103E-1,1.3914474E0,-3.9358422E-1,-8.0802685E-1,-9.4583765E-2,5.470885E-1,-2.3359033E-1,9.148707E-1,1.3503033E0,5.048216E-1,-5.6222415E-1,1.6989069E0,8.976245E-1,-2.2489968E-1,5.466608E-1,1.1709623E0,1.8130901E-1,-7.260649E-1,4.5410964E-1,1.2317026E0,6.9558626E-1,1.4360982E0,-4.1459036E-1,1.1111574E0,-8.333622E-1,-1.21854834E-1,9.523498E-1,-1.5649834E-1,6.995213E-1,3.54454E-2,-3.2399243E-1,2.7158492E0,1.1767687E0,4.341937E-1,1.1227559E0,1.5643284E0,1.24734804E-1,1.2421526E0,-7.9083914E-1,5.931307E-1,-7.21241E-1,2.5387998E0,-4.885695E-1,1.0592021E0,-4.1852492E-1,1.620447E0,6.2043786E-2,-7.305423E-2,2.0693596E-1,1.03176616E-1,7.527491E-2,1.0591043E-2,3.7517008E-1,-7.6339744E-2,2.1539357E-2,1.0626566E-1,1.2585849E-1,-5.435566E-2,-1.22256115E-1,1.140821E-1,1.4424565E-1,-5.9750624E-2,-4.5113944E-2,4.1698202E-2,-8.381631E-2,1.2891671E-1,-8.370079E-2,1.4401935E-1,1.6560439E-2,-1.0414179E-1,6.859726E-2,2.4634123E-1,-2.1786433E-2,5.7887305E-2,7.719923E-2,-2.6055137E-2,-3.373697E-2,4.071849E-2,-4.2129647E-2,1.158662E-1,4.4530892E-1,-9.446589E-2,1.2513307E-1,-9.469895E-2,1.814941E-2,1.413294E-1,1.3035956E-1,-1.0102651E-1,1.7409728E-1,1.451996E-1,-2.5777226E-2,1.0895213E-1,1.3122758E-1,-1.0751515E-1,6.371301E-2,-8.976845E-2,1.2976846E-1,-1.1123073E-1,-1.0976435E-1,1.876251E-1,3.2895997E-1,4.435545E-2,-1.0992292E-1,1.5363978E-1,1.16804555E-1,-2.340149E-2,-6.534494E-2,6.6333614E-2,1.8752597E-1,-9.3187444E-2],"categories":[],"categories_nodes":[],"categories_segments":[],"categories_sizes":[],"default_left":[0,0,0,0,0,0,0,0,0,0,0,0,0,0,0,0,0,0,0,0,0,0,0,0,0,0,0,0,0,0,0,0,0,0,0,0,0,0,0,0,0,0,0,0,0,0,0,0,0,0,0,0,0,0,0,0,0,0,0,0,0,0,0,0,0,0,0,0,0,0,0,0,0,0,0,0,0,0,0,0,0,0,0,0,0,0,0,0,0,0,0,0,0,0,0,0,0,0,0,0,0,0,0,0,0,0,0,0,0,0,0,0,0,0,0,0,0,0,0,0,0,0,0,0,0,0,0],"id":10,"left_children":[1,3,5,7,9,11,13,15,17,19,21,23,25,27,29,31,33,35,37,39,41,43,45,47,49,51,53,55,57,59,61,63,65,67,69,71,73,75,77,79,81,83,85,87,89,91,93,95,97,99,101,103,105,107,109,111,113,115,117,119,121,123,125,-1,-1,-1,-1,-1,-1,-1,-1,-1,-1,-1,-1,-1,-1,-1,-1,-1,-1,-1,-1,-1,-1,-1,-1,-1,-1,-1,-1,-1,-1,-1,-1,-1,-1,-1,-1,-1,-1,-1,-1,-1,-1,-1,-1,-1,-1,-1,-1,-1,-1,-1,-1,-1,-1,-1,-1,-1,-1,-1,-1,-1,-1,-1,-1],"loss_changes":[6.254628E3,3.5254475E3,6.080205E2,7.038512E2,3.0810771E3,3.3401807E2,3.3577975E2,3.1591736E2,7.255701E1,1.1422822E3,9.2600793E2,3.7354187E2,1.7269312E2,2.2096512E2,1.8076437E2,8.880597E1,1.9610266E2,1.3846179E2,1.3245728E1,6.906731E2,1.6619824E2,4.623064E2,2.5620343E2,9.368082E1,1.9224231E2,1.08512695E2,7.641504E1,1.287431E2,9.832448E1,1.4807892E2,6.640205E1,7.896976E1,3.7397217E1,1.5180583E2,4.5568665E1,5.7909515E1,2.6582275E1,2.665937E1,6.420166E0,6.547417E2,1.0549414E2,7.766992E1,9.0522484E1,1.5860971E2,3.0394495E2,1.7631348E2,1.04797356E2,4.9335464E1,7.070518E1,1.5803857E2,1.3374573E2,4.2600513E2,2.0573975E1,6.722312E1,1.6494446E1,6.2493332E1,9.852336E1,1.4778323E1,5.432718E1,8.758213E1,8.337134E1,4.294606E1,1.324131E1,0E0,0E0,0E0,0E0,0E0,0E0,0E0,0E0,0E0,0E0,0E0,0E0,0E0,0E0,0E0,0E0,0E0,0E0,0E0,0E0,0E0,0E0,0E0,0E0,0E0,0E0,0E0,0E0,0E0,0E0,0E0,0E0,0E0,0E0,0E0,0E0,0E0,0E0,0E0,0E0,0E0,0E0,0E0,0E0,0E0,0E0,0E0,0E0,0E0,0E0,0E0,0E0,0E0,0E0,0E0,0E0,0E0,0E0,0E0,0E0,0E0,0E0,0E0,0E0],"parents":[2147483647,0,0,1,1,2,2,3,3,4,4,5,5,6,6,7,7,8,8,9,9,10,10,11,11,12,12,13,13,14,14,15,15,16,16,17,17,18,18,19,19,20,20,21,21,22,22,23,23,24,24,25,25,26,26,27,27,28,28,29,29,30,30,31,31,32,32,33,33,34,34,35,35,36,36,37,37,38,38,39,39,40,40,41,41,42,42,43,43,44,44,45,45,46,46,47,47,48,48,49,49,50,50,51,51,52,52,53,53,54,54,55,55,56,56,57,57,58,58,59,59,60,60,61,61,62,62],"right_children":[2,4,6,8,10,12,14,16,18,20,22,24,26,28,30,32,34,36,38,40,42,44,46,48,50,52,54,56,58,60,62,64,66,68,70,72,74,76,78,80,82,84,86,88,90,92,94,96,98,100,102,104,106,108,110,112,114,116,118,120,122,124,126,-1,-1,-1,-1,-1,-1,-1,-1,-1,-1,-1,-1,-1,-1,-1,-1,-1,-1,-1,-1,-1,-1,-1,-1,-1,-1,-1,-1,-1,-1,-1,-1,-1,-1,-1,-1,-1,-1,-1,-1,-1,-1,-1,-1,-1,-1,-1,-1,-1,-1,-1,-1,-1,-1,-1,-1,-1,-1,-1,-1,-1,-1,-1,-1],"split_conditions":[2E0,1E0,1E0,2E0,4.9E1,4E0,2E0,-4E0,1.0253546E0,1E0,2E0,8.171707E-1,2.6E1,3.37E2,1.4649E4,5.49E2,1E0,1.68E2,6.1998194E-1,2E0,5.83E2,2E0,2.95E1,4.33E2,2E0,1.3E1,2E0,2E0,2.25E2,1.5E2,3E0,1E0,1.04E2,-1E1,1.142E3,1.0320479E0,3E0,3.33E2,3.7E1,1.7385E2,2.22E2,8E0,1.41E2,4.338E2,1.3915372E-1,1E0,2.26E2,3E0,4.44E2,4E0,3E0,7E0,2E0,1.1080649E0,6E0,2.261E3,5.69E1,1.2243E1,4.44E2,7E0,5.01677E1,6E0,1.347E3,6.2043786E-2,-7.305423E-2,2.0693596E-1,1.03176616E-1,7.527491E-2,1.0591043E-2,3.7517008E-1,-7.6339744E-2,2.1539357E-2,1.0626566E-1,1.2585849E-1,-5.435566E-2,-1.22256115E-1,1.140821E-1,1.4424565E-1,-5.9750624E-2,-4.5113944E-2,4.1698202E-2,-8.381631E-2,1.2891671E-1,-8.370079E-2,1.4401935E-1,1.6560439E-2,-1.0414179E-1,6.859726E-2,2.4634123E-1,-2.1786433E-2,5.7887305E-2,7.719923E-2,-2.6055137E-2,-3.373697E-2,4.071849E-2,-4.2129647E-2,1.158662E-1,4.4530892E-1,-9.446589E-2,1.2513307E-1,-9.469895E-2,1.814941E-2,1.413294E-1,1.3035956E-1,-1.0102651E-1,1.7409728E-1,1.451996E-1,-2.5777226E-2,1.0895213E-1,1.3122758E-1,-1.0751515E-1,6.371301E-2,-8.976845E-2,1.2976846E-1,-1.1123073E-1,-1.0976435E-1,1.876251E-1,3.2895997E-1,4.435545E-2,-1.0992292E-1,1.5363978E-1,1.16804555E-1,-2.340149E-2,-6.534494E-2,6.6333614E-2,1.8752597E-1,-9.3187444E-2],"split_indices":[5,6,163,149,178,5,161,21,144,71,160,160,6,11,2,26,54,9,63,148,8,6,177,11,6,5,79,79,10,9,78,188,10,18,2,146,65,26,134,181,26,82,31,102,55,54,10,149,11,160,79,6,149,57,20,2,176,179,11,5,127,5,27,0,0,0,0,0,0,0,0,0,0,0,0,0,0,0,0,0,0,0,0,0,0,0,0,0,0,0,0,0,0,0,0,0,0,0,0,0,0,0,0,0,0,0,0,0,0,0,0,0,0,0,0,0,0,0,0,0,0,0,0,0,0,0,0],"split_type":[0,0,0,0,0,0,0,0,0,0,0,0,0,0,0,0,0,0,0,0,0,0,0,0,0,0,0,0,0,0,0,0,0,0,0,0,0,0,0,0,0,0,0,0,0,0,0,0,0,0,0,0,0,0,0,0,0,0,0,0,0,0,0,0,0,0,0,0,0,0,0,0,0,0,0,0,0,0,0,0,0,0,0,0,0,0,0,0,0,0,0,0,0,0,0,0,0,0,0,0,0,0,0,0,0,0,0,0,0,0,0,0,0,0,0,0,0,0,0,0,0,0,0,0,0,0,0],"sum_hessian":[5.392215E4,4.8137637E4,5.7845107E3,6.324381E3,4.1813254E4,4.41263E3,1.3718804E3,4.926034E3,1.3983466E3,3.1400098E4,1.0413157E4,1.8771876E3,2.5354426E3,5.311161E2,8.4076434E2,1.1473815E3,3.778653E3,9.40889E2,4.5745758E2,2.1835082E4,9.565016E3,7.128808E3,3.2843496E3,3.4704395E2,1.5301437E3,2.263222E3,2.722205E2,4.846447E2,4.6471367E1,6.578214E2,1.8294292E2,8.3225793E2,3.1512347E2,3.5241907E3,2.5446242E2,3.992095E2,5.4167944E2,2.8583002E1,4.2887457E2,2.1535176E4,2.9990573E2,9.224217E3,3.4079877E2,3.9724713E2,6.731561E3,2.530173E3,7.541765E2,3.3758685E2,9.45709E0,9.895415E2,5.406021E2,1.0999849E3,1.1632372E3,1.8039687E2,9.182361E1,4.0485068E2,7.9794044E1,1.2008936E1,3.446243E1,6.846113E1,5.893603E2,1.6627002E2,1.6672884E1,7.8729443E2,4.4963497E1,4.041448E1,2.74709E2,4.097492E2,3.1144414E3,1.281332E0,2.5318108E2,2.8770483E2,1.1150467E2,5.3388605E2,7.7934265E0,5.055813E0,2.352719E1,4.2782764E2,1.0469517E0,2.0628955E4,9.062216E2,2.478503E1,2.751207E2,9.21008E3,1.4136523E1,2.6026025E2,8.053853E1,3.3894946E2,5.8297653E1,6.213735E3,5.17826E2,2.3527705E3,1.7740268E2,3.7658966E2,3.7758685E2,3.1746786E2,2.011901E1,6.266535E0,3.1905558E0,9.563754E2,3.3166084E1,4.306416E2,1.0996053E2,1.0143741E3,8.561084E1,4.4654288E2,7.166943E2,1.2970557E2,5.0691303E1,8.954755E1,2.2760644E0,2.7837965E1,3.770127E2,5.663569E1,2.3158354E1,1.0993317E1,1.0156195E0,2.4951426E1,9.511004E0,5.2950317E1,1.5510813E1,5.436969E2,4.5663414E1,1.3693155E2,2.9338476E1,1.5400626E1,1.272258E0],"tree_param":{"num_deleted":"0","num_feature":"199","num_nodes":"127","size_leaf_vector":"1"}},{"base_weights":[-1.2680328E-1,-2.3570812E-1,7.807457E-1,4.1627133E-1,-3.3937472E-1,4.173303E-1,1.1143832E0,2.507494E-1,1.0466479E0,-4.83625E-1,1.2711388E-1,1.7068349E-1,1.0107741E0,3.7056625E-1,1.2045752E0,-3.4427553E-1,3.9707834E-1,5.269665E-1,1.1677749E0,-5.854792E-1,-1.8754213E-1,2.3072748E-1,-4.9711314E-1,4.9927858E-1,-2.7311754E-1,1.3091184E0,-7.4087165E-2,1.3725711E-1,1.6650017E0,1.2570022E0,4.5521927E-1,-2.5454836E-2,-6.860886E-1,7.1190184E-1,1.3723847E-1,-2.674064E-1,8.5897535E-1,1.1816895E0,-8.2762235E-1,-1.6046867E-1,-6.627426E-1,-2.2821379E-1,2.1119995E0,1.8411723E-1,1.5693239E0,-6.883767E-1,3.89823E-1,7.0519143E-1,-2.4386325E-1,-3.5035995E-1,1.1675562E0,7.2250813E-1,1.5661786E0,-1.8690118E-1,2.0006104E0,-2.7472296E-1,1.3790883E0,2.421447E0,-3.6928245E-1,1.1774581E-1,1.2807505E0,-1.2511387E-1,1.2025911E0,-1.7313939E-2,1.0071673E-1,2.4651794E-1,-7.289779E-2,5.4226857E-2,1.077726E-1,2.3119822E-2,-7.723485E-2,-1.0636846E-1,7.204729E-2,1.12173654E-1,-6.2218953E-2,1.2909557E-1,9.32111E-2,-1.279362E-1,9.4971284E-2,1.5907367E-1,-2.142765E-2,-6.7452215E-2,1.8793528E-1,1.2834637E-2,-4.7858175E-2,3.19144E-1,1.3992538E-2,9.0628555E-3,9.478567E-2,9.1177605E-2,2.4630916E-1,-7.217321E-2,4.6445757E-1,8.2092084E-2,-4.6086017E-2,9.816837E-2,2.066011E-2,-6.438624E-2,5.886668E-2,2.057852E-1,-3.9277717E-2,1.7577899E-1,-1.1736599E-1,1.3556832E-1,-9.3103535E-2,1.5886483E-1,-1.426907E-1,-4.346804E-2,9.996274E-2,-1.1277725E-1,3.2339883E-1,-5.424518E-2,8.74975E-2,1.5295295E-1,-7.537228E-3,2.807099E-1,-9.1925636E-2,1.573194E-1,-1.17878176E-1,-6.366334E-2,1.3979894E-1,1.4176278E-1,1.06164075E-1,-3.2275017E-2,1.7128347E-1,1.2881494E-1,-9.195181E-2],"categories":[],"categories_nodes":[],"categories_segments":[],"categories_sizes":[],"default_left":[0,0,0,0,0,0,0,0,0,0,0,0,0,0,0,0,0,0,0,0,0,0,0,0,0,0,0,0,0,0,0,0,0,0,0,0,0,0,0,0,0,0,0,0,0,0,0,0,0,0,0,0,0,0,0,0,0,0,0,0,0,0,0,0,0,0,0,0,0,0,0,0,0,0,0,0,0,0,0,0,0,0,0,0,0,0,0,0,0,0,0,0,0,0,0,0,0,0,0,0,0,0,0,0,0,0,0,0,0,0,0,0,0,0,0,0,0,0,0,0,0,0,0,0,0,0,0],"id":11,"left_children":[1,3,5,7,9,11,13,15,17,19,21,23,25,27,29,31,33,35,37,39,41,43,45,47,49,51,53,55,57,59,61,63,65,67,69,71,73,75,77,79,81,83,85,87,89,91,93,95,97,99,101,103,105,107,109,111,113,115,117,119,121,123,125,-1,-1,-1,-1,-1,-1,-1,-1,-1,-1,-1,-1,-1,-1,-1,-1,-1,-1,-1,-1,-1,-1,-1,-1,-1,-1,-1,-1,-1,-1,-1,-1,-1,-1,-1,-1,-1,-1,-1,-1,-1,-1,-1,-1,-1,-1,-1,-1,-1,-1,-1,-1,-1,-1,-1,-1,-1,-1,-1,-1,-1,-1,-1,-1],"loss_changes":[5.2072437E3,3.1794856E3,6.839673E2,6.731345E2,2.7312012E3,3.9553455E2,1.9694897E2,4.4531592E2,8.385205E1,9.3479395E2,6.201873E2,2.7880948E2,2.5692883E2,9.6304955E1,1.025061E2,1.1001981E2,3.3564093E2,6.760606E1,3.1169922E1,7.573154E2,7.427367E2,5.127573E2,2.3184201E2,1.6824149E2,9.0947556E1,9.272534E1,4.065497E1,1.394953E2,7.587256E1,6.617871E1,7.524131E1,8.000537E1,6.765225E1,1.145614E2,1.9244666E2,6.0599583E1,7.09095E1,2.8256592E1,7.733248E0,3.3479913E2,5.857012E2,6.963148E2,2.9337598E2,5.673629E2,1.602851E2,2.0316846E2,8.941824E1,1.183934E2,7.998342E1,7.976684E1,5.9593773E1,2.0176184E2,3.131482E1,4.869114E1,3.822301E1,6.3579834E1,1.4973358E1,4.850966E1,2.3986052E1,5.030261E1,7.051758E1,3.6282234E1,1.4941322E1,0E0,0E0,0E0,0E0,0E0,0E0,0E0,0E0,0E0,0E0,0E0,0E0,0E0,0E0,0E0,0E0,0E0,0E0,0E0,0E0,0E0,0E0,0E0,0E0,0E0,0E0,0E0,0E0,0E0,0E0,0E0,0E0,0E0,0E0,0E0,0E0,0E0,0E0,0E0,0E0,0E0,0E0,0E0,0E0,0E0,0E0,0E0,0E0,0E0,0E0,0E0,0E0,0E0,0E0,0E0,0E0,0E0,0E0,0E0,0E0,0E0,0E0,0E0,0E0],"parents":[2147483647,0,0,1,1,2,2,3,3,4,4,5,5,6,6,7,7,8,8,9,9,10,10,11,11,12,12,13,13,14,14,15,15,16,16,17,17,18,18,19,19,20,20,21,21,22,22,23,23,24,24,25,25,26,26,27,27,28,28,29,29,30,30,31,31,32,32,33,33,34,34,35,35,36,36,37,37,38,38,39,39,40,40,41,41,42,42,43,43,44,44,45,45,46,46,47,47,48,48,49,49,50,50,51,51,52,52,53,53,54,54,55,55,56,56,57,57,58,58,59,59,60,60,61,61,62,62],"right_children":[2,4,6,8,10,12,14,16,18,20,22,24,26,28,30,32,34,36,38,40,42,44,46,48,50,52,54,56,58,60,62,64,66,68,70,72,74,76,78,80,82,84,86,88,90,92,94,96,98,100,102,104,106,108,110,112,114,116,118,120,122,124,126,-1,-1,-1,-1,-1,-1,-1,-1,-1,-1,-1,-1,-1,-1,-1,-1,-1,-1,-1,-1,-1,-1,-1,-1,-1,-1,-1,-1,-1,-1,-1,-1,-1,-1,-1,-1,-1,-1,-1,-1,-1,-1,-1,-1,-1,-1,-1,-1,-1,-1,-1,-1,-1,-1,-1,-1,-1,-1,-1,-1,-1,-1,-1,-1],"split_conditions":[2E0,1E0,1.1207792E0,2E0,2E0,7E0,1.83E2,2.40291E6,3.266084E6,1E0,1E0,7E0,2.4E1,3.3E2,1.31E2,1.610796E6,1.436779E0,1.6860089E-1,3E0,3E0,2E0,1E0,1.04E2,1.5236E4,5.09436E1,1.3E1,6.1998194E-1,1.7E1,4.36E2,3E0,1E1,5.61E2,1.01E2,1.265E2,1E0,2E0,2.595E1,1.0504146E0,3E0,1.23E2,8.08913E1,9.2E1,2.6E2,3.9E2,5.1E1,1.8301E4,3.3E2,2E0,1E0,1.284E3,1.3832E4,1.9E1,5.64E2,2E0,1.68E2,1.25E2,1E0,8.3E1,-3E0,1.3E1,1.7E1,2E0,1.5E1,-1.7313939E-2,1.0071673E-1,2.4651794E-1,-7.289779E-2,5.4226857E-2,1.077726E-1,2.3119822E-2,-7.723485E-2,-1.0636846E-1,7.204729E-2,1.12173654E-1,-6.2218953E-2,1.2909557E-1,9.32111E-2,-1.279362E-1,9.4971284E-2,1.5907367E-1,-2.142765E-2,-6.7452215E-2,1.8793528E-1,1.2834637E-2,-4.7858175E-2,3.19144E-1,1.3992538E-2,9.0628555E-3,9.478567E-2,9.1177605E-2,2.4630916E-1,-7.217321E-2,4.6445757E-1,8.2092084E-2,-4.6086017E-2,9.816837E-2,2.066011E-2,-6.438624E-2,5.886668E-2,2.057852E-1,-3.9277717E-2,1.7577899E-1,-1.1736599E-1,1.3556832E-1,-9.3103535E-2,1.5886483E-1,-1.426907E-1,-4.346804E-2,9.996274E-2,-1.1277725E-1,3.2339883E-1,-5.424518E-2,8.74975E-2,1.5295295E-1,-7.537228E-3,2.807099E-1,-9.1925636E-2,1.573194E-1,-1.17878176E-1,-6.366334E-2,1.3979894E-1,1.4176278E-1,1.06164075E-1,-3.2275017E-2,1.7128347E-1,1.2881494E-1,-9.195181E-2],"split_indices":[5,7,60,124,161,5,9,0,0,193,71,29,7,11,29,0,109,106,64,30,65,186,175,2,182,5,63,5,11,13,5,26,24,1,54,122,104,101,66,11,129,35,11,1,1,2,176,7,193,2,2,29,29,70,24,1,134,29,21,5,13,173,176,0,0,0,0,0,0,0,0,0,0,0,0,0,0,0,0,0,0,0,0,0,0,0,0,0,0,0,0,0,0,0,0,0,0,0,0,0,0,0,0,0,0,0,0,0,0,0,0,0,0,0,0,0,0,0,0,0,0,0,0,0,0,0,0],"split_type":[0,0,0,0,0,0,0,0,0,0,0,0,0,0,0,0,0,0,0,0,0,0,0,0,0,0,0,0,0,0,0,0,0,0,0,0,0,0,0,0,0,0,0,0,0,0,0,0,0,0,0,0,0,0,0,0,0,0,0,0,0,0,0,0,0,0,0,0,0,0,0,0,0,0,0,0,0,0,0,0,0,0,0,0,0,0,0,0,0,0,0,0,0,0,0,0,0,0,0,0,0,0,0,0,0,0,0,0,0,0,0,0,0,0,0,0,0,0,0,0,0,0,0,0,0,0,0],"sum_hessian":[5.2682582E4,4.703873E4,5.643853E3,6.4527993E3,4.058593E4,2.7024524E3,2.941401E3,5.1119263E3,1.3408728E3,3.099992E4,9.586011E3,1.9099341E3,7.9251825E2,3.1864346E2,2.6227573E3,1.0087286E3,4.1031978E3,2.544662E2,1.0864066E3,2.306459E4,7.9353286E3,8.22191E3,1.3641003E3,1.0973324E3,8.126018E2,6.214175E2,1.7110081E2,2.7091904E2,4.7724426E1,2.4506272E3,1.7213025E2,5.224739E2,4.8625467E2,1.8545157E3,2.248682E3,7.5063034E1,1.7940317E2,1.0792882E3,7.118424E0,3.5484365E3,1.9516154E4,7.798302E3,1.3702672E2,7.9463535E3,2.7555643E2,1.1223046E3,2.4179579E2,8.5928827E2,2.3804411E2,7.719691E2,4.063268E1,1.905024E2,4.3091507E2,1.6313982E2,7.9609966E0,2.0401529E2,6.6903725E1,3.4649677E1,1.3074748E1,5.0162933E1,2.400464E3,9.736165E1,7.476859E1,4.5782812E2,6.464577E1,5.7707925E0,4.804839E2,1.2687E3,5.8581586E2,2.038819E3,2.0986288E2,4.151955E1,3.3543488E1,1.5257822E2,2.6824965E1,7.47749E2,3.315392E2,5.899218E0,1.2192057E0,1.0492817E2,3.4435083E3,1.942687E4,8.9285095E1,3.2171304E3,4.5811714E3,8.8155396E1,4.8871326E1,7.0807266E3,8.656269E2,1.5992168E2,1.1563473E2,1.1161879E3,6.116617E0,1.604965E2,8.1299286E1,5.5213434E2,3.0715393E2,1.6094348E2,7.710063E1,1.2539375E1,7.5942975E2,3.26505E1,7.982177E0,1.3788399E2,5.2618412E1,4.2816992E2,2.7451272E0,1.3548131E2,2.76585E1,2.2753477E0,5.685649E0,1.6590855E2,3.810675E1,6.0585487E1,6.31824E0,3.1206877E1,3.4428022E0,3.5684562E0,9.506292E0,3.18803E1,1.8282635E1,1.4741173E3,9.263469E2,8.86531E1,8.708553E0,7.224869E1,2.5199056E0],"tree_param":{"num_deleted":"0","num_feature":"199","num_nodes":"127","size_leaf_vector":"1"}},{"base_weights":[-1.2428514E-1,-2.1322337E-1,8.2526E-1,-7.932362E-2,-6.847654E-1,5.109289E-1,1.1332699E0,-2.2678037E-1,1.9443825E-1,-7.2360194E-1,1.9599983E-1,7.667658E-1,2.2185646E-2,1.1956224E0,6.31268E-1,-3.433155E-1,8.8517964E-2,4.979854E-1,-1.8518808E-1,-7.481211E-1,-1.401E-1,3.7870714E-1,-7.646166E-1,-2.4382603E-1,8.4435433E-1,-1.5460145E-1,8.0408263E-1,1.029109E0,1.3088485E0,-9.857817E-1,7.3477566E-1,-3.5472372E-1,2.7796426E0,1.4274639E-2,8.1613517E-1,4.030795E-1,1.2815342E0,-4.5636603E-1,2.215455E-1,-8.629412E-1,-6.4160174E-1,-2.600865E-1,1.9561472E0,4.31782E-2,1.3999037E0,7.977373E-1,-1.1474188E-1,-5.5005306E-1,8.759732E-1,1.0134732E0,5.2240014E-1,-2.9271042E-1,1.0862279E0,-1.0476087E-1,1.120726E0,-1.7983325E-1,1.1161822E0,1.761804E0,1.2624403E0,-1.4259225E-1,1.0656363E-1,4.0062478E-1,1.1938154E0,-3.610869E-2,5.133272E-1,1.7561468E-1,3.7591955E-1,-4.4174687E-4,1.935045E-1,6.5546505E-2,2.3532341E-1,5.2889593E-2,-2.7876988E-2,1.4944978E-1,-2.7242145E-3,-5.1244415E-2,8.2908E-2,-6.81331E-2,6.5539345E-2,-8.739862E-2,-2.8223187E-2,-8.016966E-2,-5.224828E-2,1.4474003E-1,-4.326579E-2,2.2114296E-1,-7.747676E-2,2.7608087E-2,-1.2080157E-1,1.4948037E-2,2.0382772E-1,1.7291819E-1,-1.0534743E-1,1.5929799E-1,-6.409237E-2,1.1682391E-1,-9.61996E-2,1.0751853E-1,3.6636874E-2,1.7612316E-2,8.5127495E-2,-3.510422E-2,1.699036E-1,1.2945522E-1,-1.1069202E-1,-7.669052E-2,1.1436482E-1,-1.20170705E-1,1.2795767E-1,-6.600477E-2,1.5228556E-1,1.163729E-1,-6.187126E-2,2.0942815E-1,1.3661675E-1,1.2694865E-1,-1.0471976E-1,5.4767467E-2,-1.5730907E-1,1.2507747E-1,-9.838501E-2],"categories":[],"categories_nodes":[],"categories_segments":[],"categories_sizes":[],"default_left":[0,0,0,0,0,0,0,0,0,0,0,0,0,0,0,0,0,0,0,0,0,0,0,0,0,0,0,0,0,0,0,0,0,0,0,0,0,0,0,0,0,0,0,0,0,0,0,0,0,0,0,0,0,0,0,0,0,0,0,0,0,0,0,0,0,0,0,0,0,0,0,0,0,0,0,0,0,0,0,0,0,0,0,0,0,0,0,0,0,0,0,0,0,0,0,0,0,0,0,0,0,0,0,0,0,0,0,0,0,0,0,0,0,0,0,0,0,0,0,0,0],"id":12,"left_children":[1,3,5,7,9,11,13,15,17,19,21,23,25,27,29,31,33,35,37,39,41,43,45,47,49,51,53,55,57,59,61,63,65,67,69,71,73,75,77,79,81,83,85,87,89,91,-1,93,95,97,99,101,103,105,107,109,111,113,115,-1,-1,117,119,-1,-1,-1,-1,-1,-1,-1,-1,-1,-1,-1,-1,-1,-1,-1,-1,-1,-1,-1,-1,-1,-1,-1,-1,-1,-1,-1,-1,-1,-1,-1,-1,-1,-1,-1,-1,-1,-1,-1,-1,-1,-1,-1,-1,-1,-1,-1,-1,-1,-1,-1,-1,-1,-1,-1,-1,-1,-1],"loss_changes":[4.3252305E3,2.9566716E3,4.2408813E2,1.4723906E3,3.5439502E2,2.7165265E2,6.856421E1,8.7104395E2,1.4714907E3,1.4181055E2,7.719205E1,1.1202875E2,1.0345936E2,3.5772217E1,4.2032585E1,6.176387E2,3.4561017E2,5.271372E2,6.259409E2,1.15870605E2,1.0142898E2,1.2630919E2,4.2990376E1,3.561679E1,7.159662E1,1.0494704E2,3.9835632E1,8.4578186E1,2.2333374E1,1.5310827E1,3.518815E1,6.041116E2,5.6671265E1,2.0848395E2,1.4475043E2,5.4322534E2,2.1357825E2,2.4585321E2,8.8980066E2,2.9117188E1,9.382556E1,1.12715775E2,1.693946E1,8.152885E1,7.247693E1,2.6711607E1,0E0,1.6808867E1,1.3150244E1,3.424524E1,5.203753E1,6.451795E1,2.9468475E1,3.111127E1,3.9330185E1,4.574268E1,6.2408936E1,1.1087616E1,1.8631958E1,0E0,0E0,4.0354435E1,1.3318237E1,0E0,0E0,0E0,0E0,0E0,0E0,0E0,0E0,0E0,0E0,0E0,0E0,0E0,0E0,0E0,0E0,0E0,0E0,0E0,0E0,0E0,0E0,0E0,0E0,0E0,0E0,0E0,0E0,0E0,0E0,0E0,0E0,0E0,0E0,0E0,0E0,0E0,0E0,0E0,0E0,0E0,0E0,0E0,0E0,0E0,0E0,0E0,0E0,0E0,0E0,0E0,0E0,0E0,0E0,0E0,0E0,0E0,0E0],"parents":[2147483647,0,0,1,1,2,2,3,3,4,4,5,5,6,6,7,7,8,8,9,9,10,10,11,11,12,12,13,13,14,14,15,15,16,16,17,17,18,18,19,19,20,20,21,21,22,22,23,23,24,24,25,25,26,26,27,27,28,28,29,29,30,30,31,31,32,32,33,33,34,34,35,35,36,36,37,37,38,38,39,39,40,40,41,41,42,42,43,43,44,44,45,45,47,47,48,48,49,49,50,50,51,51,52,52,53,53,54,54,55,55,56,56,57,57,58,58,61,61,62,62],"right_children":[2,4,6,8,10,12,14,16,18,20,22,24,26,28,30,32,34,36,38,40,42,44,46,48,50,52,54,56,58,60,62,64,66,68,70,72,74,76,78,80,82,84,86,88,90,92,-1,94,96,98,100,102,104,106,108,110,112,114,116,-1,-1,118,120,-1,-1,-1,-1,-1,-1,-1,-1,-1,-1,-1,-1,-1,-1,-1,-1,-1,-1,-1,-1,-1,-1,-1,-1,-1,-1,-1,-1,-1,-1,-1,-1,-1,-1,-1,-1,-1,-1,-1,-1,-1,-1,-1,-1,-1,-1,-1,-1,-1,-1,-1,-1,-1,-1,-1,-1,-1,-1],"split_conditions":[2E0,1E0,3E0,1E0,2.159E2,3E0,1.3E1,2E0,6.3E1,5.83E2,3.94E2,1.1E1,2E0,3E0,1E1,1E0,8E0,4.3495E2,1.35375E2,6.85E1,1E0,3E0,7E0,1.0253546E0,1.7E1,7E0,1.0383139E0,1.6860089E-1,1.3435099E0,5E0,1.0132792E0,3E0,1E0,2E0,5.72E2,5.55E2,1.03645E3,2E0,1.4E1,2E0,2.25E2,4.053E3,2E1,7.59E2,9.5E3,4.8E2,-1.1474188E-1,2.4506E4,2E0,2.695E1,2E0,5E0,1.47E2,2E0,2.22E2,3E0,2.61619E1,2E0,5.8E1,-1.4259225E-1,1.0656363E-1,2.595E1,2.56E2,-3.610869E-2,5.133272E-1,1.7561468E-1,3.7591955E-1,-4.4174687E-4,1.935045E-1,6.5546505E-2,2.3532341E-1,5.2889593E-2,-2.7876988E-2,1.4944978E-1,-2.7242145E-3,-5.1244415E-2,8.2908E-2,-6.81331E-2,6.5539345E-2,-8.739862E-2,-2.8223187E-2,-8.016966E-2,-5.224828E-2,1.4474003E-1,-4.326579E-2,2.2114296E-1,-7.747676E-2,2.7608087E-2,-1.2080157E-1,1.4948037E-2,2.0382772E-1,1.7291819E-1,-1.0534743E-1,1.5929799E-1,-6.409237E-2,1.1682391E-1,-9.61996E-2,1.0751853E-1,3.6636874E-2,1.7612316E-2,8.5127495E-2,-3.510422E-2,1.699036E-1,1.2945522E-1,-1.1069202E-1,-7.669052E-2,1.1436482E-1,-1.20170705E-1,1.2795767E-1,-6.600477E-2,1.5228556E-1,1.163729E-1,-6.187126E-2,2.0942815E-1,1.3661675E-1,1.2694865E-1,-1.0471976E-1,5.4767467E-2,-1.5730907E-1,1.2507747E-1,-9.838501E-2],"split_indices":[124,71,124,193,178,109,125,161,33,8,6,13,122,119,13,106,161,1,1,1,159,165,33,144,13,5,119,106,150,142,154,63,6,107,8,8,1,65,13,57,10,2,13,178,2,6,0,19,6,104,142,83,29,142,26,122,128,5,138,0,0,176,6,0,0,0,0,0,0,0,0,0,0,0,0,0,0,0,0,0,0,0,0,0,0,0,0,0,0,0,0,0,0,0,0,0,0,0,0,0,0,0,0,0,0,0,0,0,0,0,0,0,0,0,0,0,0,0,0,0,0],"split_type":[0,0,0,0,0,0,0,0,0,0,0,0,0,0,0,0,0,0,0,0,0,0,0,0,0,0,0,0,0,0,0,0,0,0,0,0,0,0,0,0,0,0,0,0,0,0,0,0,0,0,0,0,0,0,0,0,0,0,0,0,0,0,0,0,0,0,0,0,0,0,0,0,0,0,0,0,0,0,0,0,0,0,0,0,0,0,0,0,0,0,0,0,0,0,0,0,0,0,0,0,0,0,0,0,0,0,0,0,0,0,0,0,0,0,0,0,0,0,0,0,0],"sum_hessian":[5.121286E4,4.6827574E4,4.3852837E3,3.647208E4,1.0355495E4,2.1716873E3,2.2135967E3,2.3704346E4,1.2767734E4,9.918333E3,4.3716165E2,1.4251248E3,7.4656244E2,1.9677991E3,2.4579767E2,1.7307395E4,6.39695E3,7.0946104E3,5.6731235E3,9.518095E3,4.0023907E2,3.6781058E2,6.935107E1,1.01460335E2,1.3236644E3,6.095462E2,1.3701627E2,8.0056104E2,1.167238E3,1.4274247E1,2.3152342E2,1.7245285E4,6.2110886E1,5.8055894E3,5.913609E2,6.3294785E3,7.651318E2,3.4036895E3,2.2694343E3,4.5771533E3,4.940941E3,3.793987E2,2.084037E1,2.7763263E2,9.017795E1,1.343481E1,5.5916256E1,8.007212E1,2.1388212E1,8.6640436E2,4.5726E2,5.49184E2,6.036214E1,3.5575394E1,1.0144088E2,5.3714375E1,7.468467E2,1.0504177E2,1.0621962E3,1.2003708E1,2.2705398E0,1.3507233E2,9.645109E1,1.7226246E4,1.9039116E1,3.1739914E1,3.0370974E1,5.750624E3,5.4964893E1,5.366883E2,5.4672585E1,5.343676E3,9.858029E2,6.579315E2,1.0720023E2,3.2619854E3,1.4170412E2,7.3638354E2,1.5330508E3,4.491226E3,8.5927315E1,2.1054731E3,2.8354678E3,3.4147095E1,3.4525162E2,1.9232742E1,1.6076276E0,2.3472015E2,4.2912483E1,3.0895365E1,5.9282585E1,8.9816E0,4.4532094E0,2.5847554E0,7.7487366E1,1.8768166E1,2.6200457E0,7.9036804E2,7.603635E1,2.2348502E2,2.33775E2,5.3435815E2,1.4825856E1,5.5499996E1,4.8621435E0,2.3497982E1,1.2077412E1,6.073912E0,9.536697E1,4.2375446E1,1.1338924E1,7.272449E2,1.9601772E1,5.4743774E1,5.0297997E1,1.0594146E3,2.781711E0,1.2637909E2,8.693242E0,9.4407394E1,2.0436935E0],"tree_param":{"num_deleted":"0","num_feature":"199","num_nodes":"121","size_leaf_vector":"1"}},{"base_weights":[-1.1251542E-1,-2.0958912E-1,6.7970455E-1,-8.3766185E-2,-6.58914E-1,3.4327114E-1,9.9696827E-1,3.993222E-1,-1.8556799E-1,-6.963103E-1,1.4783582E-1,1.0437478E-1,8.577618E-1,1.0995408E0,4.677482E-1,-2.0678313E-1,5.355152E-1,-3.3223605E-1,1.8038215E-1,-8.4679365E-1,-5.847807E-1,-3.9985888E-2,1.1396581E0,6.2457913E-1,-1.8862572E-1,1.1576664E0,-3.222738E-2,2.5326004E-2,1.1264532E0,7.0272875E-1,-1.020858E0,1.450798E-1,-6.030114E-1,3.881724E-1,9.7469276E-1,-4.0636835E-1,3.175011E-1,-1.20950826E-1,3.7403086E-1,-8.6737704E-1,-2.6849282E-1,-6.183206E-1,2.2030884E-1,5.981362E-1,-4.3897295E-1,1.7597502E0,-8.3616453E-1,8.4656924E-1,-3.213134E-1,-3.26414E-1,8.0540043E-1,6.686198E-1,1.442574E0,-2.1763213E-1,1.4450469E0,-5.050136E-1,1.2352121E0,1.2499775E0,9.363761E-1,-1.2029331E-1,7.800259E-1,-1.096847E0,1.6630982E-1,-2.8802058E-2,9.892499E-2,1.7245173E-1,-6.587872E-2,3.5524778E-2,1.738021E-1,7.990622E-2,1.1630706E-1,-4.2742457E-2,1.0041864E-1,2.2755358E-2,2.2770055E-1,-1.9313283E-2,1.1788966E-1,1.9839E-2,6.8662606E-2,-8.8062815E-2,-2.1715378E-2,-4.2016815E-2,2.7189448E-1,-7.85078E-2,-5.044495E-2,8.9601636E-2,-2.242176E-2,1.0899383E-1,-1.0089095E-1,-6.810316E-2,8.100823E-2,-1.058033E-1,2.1654311E-1,-1.1148532E-1,1.0927596E-1,-1.3790771E-2,1.01371184E-1,-9.615167E-2,2.0876871E-2,-3.6223E-2,2.2200023E-1,-5.529418E-3,1.3577017E-1,1.1864161E-1,-7.097674E-2,1.4657317E-1,3.3223327E-2,4.4028483E-2,-5.642367E-2,1.9192939E-1,-1.2414139E-1,-1.6420898E-1,7.257676E-2,7.526493E-3,1.4054383E-1,1.262601E-1,-9.160345E-2,4.5634627E-2,1.0811385E-1,1.0525779E-1,2.1109646E-2,1.3364391E-1,-1.16718926E-1],"categories":[],"categories_nodes":[],"categories_segments":[],"categories_sizes":[],"default_left":[0,0,0,0,0,0,0,0,0,0,0,0,0,0,0,0,0,0,0,0,0,0,0,0,0,0,0,0,0,0,0,0,0,0,0,0,0,0,0,0,0,0,0,0,0,0,0,0,0,0,0,0,0,0,0,0,0,0,0,0,0,0,0,0,0,0,0,0,0,0,0,0,0,0,0,0,0,0,0,0,0,0,0,0,0,0,0,0,0,0,0,0,0,0,0,0,0,0,0,0,0,0,0,0,0,0,0,0,0,0,0,0,0,0,0,0,0,0,0,0,0,0,0],"id":13,"left_children":[1,3,5,7,9,11,13,15,17,19,21,23,25,27,29,31,33,35,37,39,41,43,45,47,49,51,53,55,57,59,61,63,65,67,69,71,73,75,77,79,81,83,85,87,89,91,93,95,97,99,101,103,105,107,109,111,113,115,117,-1,119,121,-1,-1,-1,-1,-1,-1,-1,-1,-1,-1,-1,-1,-1,-1,-1,-1,-1,-1,-1,-1,-1,-1,-1,-1,-1,-1,-1,-1,-1,-1,-1,-1,-1,-1,-1,-1,-1,-1,-1,-1,-1,-1,-1,-1,-1,-1,-1,-1,-1,-1,-1,-1,-1,-1,-1,-1,-1,-1,-1,-1,-1],"loss_changes":[3.867605E3,2.53278E3,5.8562524E2,1.7214033E3,2.9578662E2,3.2757785E2,1.5282812E2,5.0301874E2,1.551739E3,1.5671094E2,8.108096E1,2.7778174E2,2.2563483E2,6.835718E1,1.6174808E2,1.5602881E2,3.215421E2,9.942173E2,4.827496E2,4.7200684E1,1.4548865E2,9.362801E1,8.6371216E1,1.3814343E2,1.5997849E2,8.712323E1,5.892862E1,3.8376823E1,5.301123E1,5.9592545E1,1.4707657E1,2.1717621E2,6.945827E1,1.6501166E2,4.039673E1,5.506511E2,3.7211176E2,3.0394397E2,2.7637097E2,3.2958984E1,6.3857456E1,9.7736206E1,6.508661E1,1.129346E2,6.894502E1,6.2950256E1,1.0480888E1,8.769034E1,4.2800724E1,9.4273254E1,6.769595E1,1.6827647E2,9.762634E0,4.3805534E1,3.2952496E1,5.9433434E1,3.492035E0,3.9319336E1,6.294757E1,0E0,5.9209473E1,1.2177605E1,0E0,0E0,0E0,0E0,0E0,0E0,0E0,0E0,0E0,0E0,0E0,0E0,0E0,0E0,0E0,0E0,0E0,0E0,0E0,0E0,0E0,0E0,0E0,0E0,0E0,0E0,0E0,0E0,0E0,0E0,0E0,0E0,0E0,0E0,0E0,0E0,0E0,0E0,0E0,0E0,0E0,0E0,0E0,0E0,0E0,0E0,0E0,0E0,0E0,0E0,0E0,0E0,0E0,0E0,0E0,0E0,0E0,0E0,0E0,0E0,0E0],"parents":[2147483647,0,0,1,1,2,2,3,3,4,4,5,5,6,6,7,7,8,8,9,9,10,10,11,11,12,12,13,13,14,14,15,15,16,16,17,17,18,18,19,19,20,20,21,21,22,22,23,23,24,24,25,25,26,26,27,27,28,28,29,29,30,30,31,31,32,32,33,33,34,34,35,35,36,36,37,37,38,38,39,39,40,40,41,41,42,42,43,43,44,44,45,45,46,46,47,47,48,48,49,49,50,50,51,51,52,52,53,53,54,54,55,55,56,56,57,57,58,58,60,60,61,61],"right_children":[2,4,6,8,10,12,14,16,18,20,22,24,26,28,30,32,34,36,38,40,42,44,46,48,50,52,54,56,58,60,62,64,66,68,70,72,74,76,78,80,82,84,86,88,90,92,94,96,98,100,102,104,106,108,110,112,114,116,118,-1,120,122,-1,-1,-1,-1,-1,-1,-1,-1,-1,-1,-1,-1,-1,-1,-1,-1,-1,-1,-1,-1,-1,-1,-1,-1,-1,-1,-1,-1,-1,-1,-1,-1,-1,-1,-1,-1,-1,-1,-1,-1,-1,-1,-1,-1,-1,-1,-1,-1,-1,-1,-1,-1,-1,-1,-1,-1,-1,-1,-1,-1,-1],"split_conditions":[2E0,1E0,1.1207792E0,1E0,2.159E2,6E0,1E0,2.40291E6,2E0,5.954E1,1E0,2E0,2.6E1,2E0,1.04E2,1.610796E6,2E0,2.8E2,6.795E1,2.84E2,1E0,3.35E2,1.82E2,1.5066E4,2E0,1.3E1,3E0,1.7E1,1.7E1,2E1,4.3E1,1.42624E5,1.342E3,1E0,3E0,2E0,2.59495E3,1E0,1E0,5.83E2,2E0,2.25E2,5E0,8.6E1,5.13E2,7.97E3,2E0,3.178E3,1E0,1.2E2,1E0,6E0,5.48E2,2.97E2,6.201539E6,1.4649E4,1.4654757E0,3.85E2,3E0,-1.2029331E-1,1.7E1,1E0,1.6630982E-1,-2.8802058E-2,9.892499E-2,